SVM-light Version V6.20
0 # kernel type
3 # kernel parameter -d 
1 # kernel parameter -g 
1 # kernel parameter -s 
1 # kernel parameter -r 
empty# kernel parameter -u 
32661 # highest feature index 
15 # number of training documents 
2 # number of support vectors plus 1 
-1.2325173e-012 # threshold b, each following line is a SV (starting with alpha*y)
1 1:0.60702068 2:-0.14921802 3:-0.035227451 4:-0.035500549 5:0.022859409 7:-0.07900618 9:-0.041837227 10:-0.013687465 11:-0.041837227 12:0.00480195 13:-0.056417339 14:-0.079386599 15:-0.0048294705 16:0.036184419 17:0.021565922 18:-0.002620091 19:-0.0018434298 20:-0.12541211 21:-0.03801053 22:-0.027894564 23:0.067728765 24:0.12685059 25:0.058897417 26:-0.036369428 27:0.00086826255 28:-0.036369428 29:0.12692052 30:0.12692052 31:-0.051725049 32:-0.054521404 33:-0.020853704 34:-0.20066144 35:-0.17960687 36:-0.0073767868 38:-0.030583581 39:-0.049951155 40:-0.044247262 41:-0.023165153 43:-0.00036708088 44:-0.00065847021 46:-0.017877461 47:-0.027160572 48:-0.017877461 49:0.0016080621 50:-0.011365172 51:-0.015639756 52:-0.021403084 53:-0.00093631673 54:-0.01926757 55:0.064394511 56:-0.0048294705 57:-0.01350629 58:-0.013555251 60:0.12685059 61:-0.014270291 63:-0.036462788 64:-0.054521404 65:-0.013579941 66:-0.0040969583 67:-0.0045251162 68:-0.013579941 69:-0.020042678 70:-0.00071260968 71:-0.060438722 72:-0.01966829 73:-0.013687465 74:-0.011061816 75:-0.063898265 76:0.047837321 77:-0.02508606 79:-0.013226914 81:0.11986103 82:-0.045981254 83:0.0017664183 85:-0.00057313149 86:-0.00074055942 87:-0.00074055942 88:-0.00026373478 89:-0.020404011 90:-0.00029538531 91:-0.00029538531 92:-0.0032364305 93:-0.0073026996 95:-0.036714174 96:0.020791305 97:-0.0055406624 98:-0.00057313149 99:-0.0026200712 100:-0.033924624 101:-0.37025177 102:0.051987298 103:-0.0060291719 104:-0.016651915 105:-0.00080294599 106:-0.071796328 109:-0.025016146 110:-0.00064072653 111:-0.018837424 112:-0.002185052 113:-0.045885861 114:-0.050659824 115:-0.013511311 119:-0.030198095 120:-0.0098879226 122:-0.0067270882 123:-0.002185052 124:-0.0075637787 125:-0.034263793 126:-0.0087629426 129:-0.0056030108 130:-0.036218692 133:-0.041990969 134:-0.0021403478 135:-0.068252467 136:-0.011365172 137:-9.9013305e-005 138:-0.0033606193 139:-0.0067161703 140:-0.017417632 141:-0.073612645 142:-0.066755652 143:-0.010847438 144:-0.016087184 145:-0.017613726 146:-0.0059067421 147:-0.01926757 148:-0.0037987866 150:-0.013687465 151:0.034381304 152:-0.00065847021 154:-0.020033823 155:-0.018956611 157:-0.0048459847 158:-0.00065847021 159:-0.0011479675 160:-0.0098879226 161:-0.01213443 162:-0.0081223631 163:-0.034352873 164:-0.00062131189 165:-0.018944612 166:-0.011061816 167:-0.067666709 168:-0.0056030108 169:-3.1977987e-005 170:-0.000817594 172:-0.012118954 173:0.16768593 174:-0.048817355 175:-0.0034748462 176:-0.00041331077 177:-0.00064072653 178:-7.5438671e-005 180:-0.011962096 181:-0.0090523921 182:0.068254724 183:-0.00054581376 185:-0.00026373478 187:-0.056417339 188:-0.013579941 190:-0.022737019 191:-3.1977987e-005 192:-0.02245271 193:-3.1977987e-005 194:-0.00064072653 195:-0.018956611 196:-0.13847537 197:-0.0058531389 198:-0.0056030108 199:-0.0018434298 200:-0.0003984592 201:-0.011171929 202:-0.0063747386 203:-0.00074055942 204:-0.0014317218 206:-0.011962096 207:-0.0051266868 209:-0.0054174517 210:-0.072136186 211:-0.022434121 212:-0.29649404 213:-0.048719626 214:-0.0063747386 215:-0.11934534 216:-0.11812007 217:-0.016651915 218:-0.00065847021 219:-0.017613726 220:-0.0056030108 221:-0.0056030108 222:-0.061516501 223:-0.016087184 224:-0.036218692 226:-0.0054174517 228:-0.0012814531 229:-3.1977987e-005 230:-0.048719626 231:-0.0068089999 232:-0.013687465 233:-0.01213443 234:-0.022737019 235:-3.1977987e-005 236:-0.0014317218 237:-0.067666709 238:-0.0058779763 242:-0.0067270882 243:-3.1977987e-005 244:-0.0056030108 245:-0.000817594 246:-0.013511311 247:-0.020033823 248:-0.040087275 249:-0.0014268983 250:-0.00026373478 252:-3.1977987e-005 253:0.038989879 254:-0.011171929 255:-0.029122058 256:-0.066755652 260:-0.006426604 261:-0.0018434298 262:-0.00071344915 263:-0.0049985056 265:-0.00054581376 266:-0.011365172 267:-3.1977987e-005 268:-0.00065847021 270:-7.5438671e-005 271:-0.00064072653 272:0.096831329 273:-0.050659824 274:-0.0037987866 276:-0.018837424 277:-3.1977987e-005 278:-0.041157261 279:-3.1977987e-005 281:-7.5438671e-005 283:-0.018956611 284:-3.1977987e-005 285:-3.1977987e-005 286:-0.0052722418 287:-0.023263028 288:-0.037460066 289:-0.000432662 290:-0.0012044198 291:-0.012863628 292:-0.012863628 293:-0.079164475 296:-0.0030559772 297:-0.045019913 298:-0.0063747386 299:-0.045265637 300:-0.57322824 301:-0.057250556 302:-0.16309167 303:-0.0032364305 304:-0.013648654 305:-3.1977987e-005 306:-0.076191783 307:-0.048601881 308:-0.0056030108 309:0.12986672 310:-0.16328685 311:-0.022100553 312:-0.032348398 313:-0.02636241 314:-0.00084598415 315:-0.01553858 316:0.0015151687 317:-0.0003984592 318:-0.01213443 319:-0.00064072653 320:-0.0075637787 321:-6.7664441e-005 323:-0.00065847021 324:-0.023564259 325:-0.025016146 326:-0.002185052 328:-0.0075637787 329:-0.00063949026 330:-0.013539474 331:-0.00047362459 332:-0.0075637787 333:0.055221908 334:0.023349887 335:-0.02636241 336:-0.0045251162 337:-0.0077969674 338:-0.00084598415 339:-0.063898265 340:-0.0062191905 342:0.048342656 343:-0.012863628 344:-0.035165131 345:-0.0229556 346:-0.043381147 347:-0.00064865482 348:-0.0229556 349:-0.036369428 350:-0.0045251162 351:-0.0011215442 352:-0.025090825 353:-0.0075637787 354:-0.0220605 355:0.048515994 356:-0.01543729 357:-0.056417339 358:-0.03626769 359:-0.043215696 360:-0.00054581376 361:-0.043850444 362:-0.056417339 364:-0.018840276 365:-0.00071260968 366:0.04813946 367:-0.0045251162 368:0.04418195 369:-0.08433786 370:-0.0017059091 371:-0.016133353 372:-0.028431086 373:-0.00045260109 374:-0.00084598415 375:-0.0032364305 376:-0.00071260968 377:-0.002185052 378:0.064060353 379:-0.096253298 380:-0.0037987866 381:-0.0021403478 382:0.063837662 383:0.068586774 384:-0.012752682 385:-3.1977987e-005 386:-0.0049985056 387:-0.013511311 388:-0.064700127 389:-3.1977987e-005 390:-0.015502032 393:-0.00021110274 394:0.046272837 395:-0.13077797 396:-0.026505636 397:-0.00084598415 398:-0.00063992862 399:-0.0011479675 400:-0.0018434298 401:-0.065919623 402:-0.011920667 403:-0.011061816 404:-0.00064072653 405:-0.013687465 406:-0.027894564 407:-0.017613726 408:0.046087768 409:0.0044057141 410:-0.0003984592 411:-0.03801053 413:-0.017877461 414:-0.0025592372 415:-0.040679663 416:-0.0018434298 418:-0.00023535587 419:0.035049308 420:-0.0030894063 421:-0.13107146 422:-0.0087629426 423:-0.00023535587 424:-0.051411953 425:-0.007733555 426:-0.0065409569 427:-0.0053416705 428:-0.02945251 429:-0.012810416 430:-0.025066871 431:-0.00084598415 432:0.028917426 433:-0.09424679 434:-0.00023535587 435:-0.066296354 439:0.038412627 440:-0.0063342326 441:-0.014545735 443:-0.02627158 444:-0.0075637787 445:-0.019370995 446:-0.019250691 447:-0.017613726 448:-0.013555251 451:-0.0013622449 452:-0.0060291719 453:-0.054560229 454:0.16429526 456:-0.0022007991 457:-0.013555251 458:-0.00062131189 459:-0.050659824 460:-0.028657028 461:-0.0063747386 462:-0.023012897 463:-0.081687905 464:-0.09515392 466:-0.029116277 467:-0.02636241 468:-0.027229402 470:-0.072179601 471:-0.01818268 472:-0.013555251 473:-3.1977987e-005 474:-0.0047965297 475:-0.00084598415 476:-0.00023535587 477:0.12787436 478:-0.011061816 479:0.022668432 480:-0.023263028 481:-0.00084598415 482:-0.011061816 483:-0.00040147299 484:-0.014545735 485:0.001949292 486:-0.034352873 487:0.0032875598 489:-0.047027353 490:-0.025016146 491:-0.00063917314 492:-0.0074231713 494:-0.025969479 495:-0.064289249 496:-0.012488058 498:-0.029624404 500:-0.15387183 501:-0.046583194 502:-0.015086281 503:-0.0229556 505:-0.022500906 506:-3.1977987e-005 507:-0.0011884528 508:-0.011868788 509:-0.0030559772 510:-0.036367103 511:-0.00051415875 512:-0.00038002129 513:-0.01213443 514:-0.020033823 515:-0.017431419 516:0.062437579 517:0.06404157 518:0.077942327 519:-0.11782895 520:0.12131338 521:-0.00042632062 523:0.064742103 524:-0.015232905 525:-0.001653464 526:-0.0006172721 527:-0.011061816 528:-0.053756136 529:-0.07326556 530:-0.030198095 531:-0.00024516482 532:-0.013511311 533:-3.1977987e-005 534:-0.0079295607 535:-0.00077279937 536:-0.0028633575 537:-0.015502032 538:0.014535672 540:-0.0028042234 542:-0.049145229 543:-0.067350917 544:-0.0016483114 545:-0.017371301 546:0.082520939 547:0.03984927 548:-0.017877461 549:0.096731842 551:-0.00040595865 552:-0.017391333 553:-0.044185195 554:-0.0018434298 555:-0.025016146 556:-0.010722976 557:-0.00066090591 558:-0.0094237253 559:0.00038882485 560:-0.0051266868 561:0.001949292 562:0.060943693 563:-0.011061816 564:0.094135508 565:-0.0063747386 566:-0.073612645 567:-0.0084272837 568:-3.1977987e-005 569:-0.00026373478 570:-0.0096530272 571:-0.00032918158 572:-3.1977987e-005 573:0.042000566 574:-0.088833392 575:-0.023486186 576:-0.0055406624 577:0.06404157 578:0.049833048 579:0.016334478 580:-0.029173777 581:-0.0098879226 582:-0.009729594 583:-0.022968043 584:-0.00026494404 585:-0.027066128 586:0.0087717939 587:-0.034352873 588:-0.054142222 589:-0.00023535587 590:-0.02627158 591:-3.1977987e-005 592:-0.030198095 593:-0.01543729 594:-0.0068089999 595:-0.0062191905 598:-0.049387429 600:-0.00038002129 601:-0.050032292 602:-0.00066090591 603:-0.07900618 604:-3.1977987e-005 605:-0.012158364 606:0.14687967 607:-0.0029857664 608:0.066140391 609:-0.026321508 610:-0.0066600745 611:-0.051348012 612:-0.038033243 613:0.0081912363 615:-0.025016146 616:0.086874001 617:0.10328422 618:-0.023750497 619:-0.034885637 620:0.0004460034 621:-0.0059067421 622:0.077230208 623:-0.00066090591 625:0.10152937 626:-0.018284664 627:-0.082069799 628:-0.0033606193 629:-0.0042195055 630:-0.00026373478 631:0.13050748 632:-0.0579268 633:-0.00084598415 634:-0.022399165 635:-0.0067161703 636:-0.0068506794 637:-0.02636241 638:-0.0015187517 639:-0.015502032 640:0.11997906 641:-0.0010850719 643:-0.0060291719 644:0.014780987 645:0.10443041 646:0.057455804 647:-0.012413687 648:0.19893676 649:-0.015086281 650:-0.0068089999 651:-0.15643229 652:-0.00023655666 653:0.14031185 655:-0.00084598415 657:-0.0030559772 658:-0.0030559772 659:-0.00063949026 660:-0.021516291 661:-0.062191661 662:-0.00054581376 663:-0.00026373478 664:-7.5438671e-005 665:-0.020853704 666:-0.10955704 667:-0.0067270882 668:-0.0016396714 670:0.1028648 671:-0.00062131189 672:0.00061616267 674:0.02430545 675:-0.01931764 676:-0.00026373478 677:-0.028104432 678:-0.058775116 679:-0.12847602 680:0.0092842206 681:-0.01281687 682:-0.22591464 683:-0.021771541 684:-0.012863628 685:-0.058775116 686:-0.0033606193 687:-0.00084598415 688:0.042844895 689:-0.0059067421 690:-0.00077279937 691:-0.063392632 692:0.10219083 693:-0.0018434298 694:-0.0098879226 695:-0.017613726 696:-0.024925983 697:0.040420871 698:-0.036714174 700:0.013525621 701:0.063813575 702:0.044451725 703:0.044451725 704:-0.015788112 705:-0.0077969674 706:-0.01826315 707:-0.0084272837 708:-0.00023535587 709:-0.066414692 710:-0.2437887 711:-0.057124708 712:-0.011788808 713:-0.021519093 714:-0.082564943 715:-0.093719162 717:-0.00064072653 718:-0.040679663 719:-0.00036708088 720:-0.00040147299 721:-0.0018434298 722:-0.0063342326 724:-0.068207063 725:-0.019250685 726:-0.00062131189 727:-0.2018238 728:-0.064936653 729:-0.028657028 730:0.024574526 731:0.075983614 732:0.082955487 733:-0.0068089999 734:-0.032774009 735:0.085012443 736:-0.03212145 737:-0.0065409569 738:-0.047749087 739:0.066429161 740:-0.01543729 741:-0.0022007991 742:-0.013579941 743:-0.0060291719 744:-0.099486127 746:-0.00036454521 747:-0.00023535587 748:0.097691886 749:0.029460495 750:-0.0070995255 751:0.046903193 752:-0.02627158 753:-0.00063949026 755:-0.00084598415 756:-3.1977987e-005 757:-3.1977987e-005 758:-0.00038002129 759:-0.0098879226 760:-0.11782895 761:-7.5438671e-005 762:-0.015502032 763:-0.0012841808 765:-0.013555251 767:-0.013570457 768:-0.0032364305 769:-0.035116058 770:0.050986137 771:-0.020404011 772:-0.059835449 773:-0.00041331077 774:-0.10126131 775:-9.0264439e-005 776:0.036477666 777:-0.04367692 778:-0.010722976 779:-0.014119066 780:-3.1977987e-005 781:-0.039653543 782:-0.017470904 783:-0.01858771 784:0.093067579 785:-0.013687465 786:0.018513057 787:0.081535064 789:-0.0068089999 790:-0.032178383 791:-0.0229556 792:-0.020404011 793:0.038306642 794:-0.0068089999 795:-0.041083787 796:-0.058630448 797:-0.00054581376 798:-0.010912644 799:-0.00023535587 801:-0.0032364305 802:-3.1977987e-005 803:-0.013787017 804:0.0030109196 805:-0.01543729 807:-0.02146242 808:-0.017877461 810:-0.00062131189 811:-0.0022007991 812:-0.029116277 813:-0.025016146 814:-0.0034504454 815:-0.023263028 816:0.15026547 817:-0.056417339 818:-0.0034748462 819:-0.023136642 820:-0.010574034 821:-0.0032551249 822:-0.0030559772 823:-0.018956611 824:-0.011365172 825:-0.000432662 826:0.075983614 827:-0.000432662 828:-0.012810416 829:-0.0036819635 830:-0.0098700216 831:-0.033326313 832:-0.0014317218 833:-0.031786043 834:0.062364839 835:-0.0054385769 836:0.046208329 837:-0.00057313149 838:-0.023876572 839:0.048740722 840:-0.086917825 842:-0.0060291719 843:0.083819143 844:-0.026505636 845:-0.0045251162 846:-9.0264439e-005 847:-0.0063747386 848:-0.0054385769 850:-0.0060291719 851:-0.016295094 852:-0.057451416 853:-0.017613726 855:-0.03801053 856:-0.031116869 857:-0.000432662 858:0.089822493 859:-0.088654511 860:0.07685554 861:0.00094860728 862:-0.011365172 863:-0.040546831 864:-0.00084598415 865:0.001949292 866:-3.1977987e-005 867:-0.034885637 869:-0.024834551 870:-0.00032918158 871:-0.036462788 872:-0.0075637787 873:-0.0018434298 874:-0.021403084 875:-0.013325808 876:-0.041212212 877:-0.0012097409 878:-0.01213443 879:-0.01926757 880:-0.00032918158 881:-0.041212212 882:-0.018837424 883:-0.011365172 884:-0.061516501 885:-7.5438671e-005 886:-0.0010225773 887:-0.013023939 888:-0.0074231713 889:-0.026505636 890:-0.054387521 891:-0.050682765 892:-0.0041049886 893:-0.021776201 894:0.082366936 895:0.086874001 896:0.08898098 897:-0.033326313 898:-0.00065847021 899:-0.045885861 900:-0.0098401569 901:-0.013579941 902:0.043765735 903:-0.00071260968 904:-0.00057313149 907:0.05538388 908:-0.069710009 909:-0.01926757 910:-0.0028615959 911:-0.019062936 912:-0.069428027 913:-0.0059067421 914:-0.020404011 915:-0.013687465 916:-0.02636241 917:-9.9534875e-005 918:-0.0063342326 919:-0.036462788 920:-0.01543729 921:0.067048401 922:-0.063372567 923:-0.056417339 924:-0.066013068 925:-0.12385771 926:-0.020339442 927:-0.014923412 928:0.12120681 929:0.043530889 931:-0.0094666528 932:-0.00036454521 933:-0.098509349 935:-3.1977987e-005 936:-0.00032918158 937:0.054881226 938:0.0010803621 939:-0.0049985056 940:-0.0060291719 941:-0.0032364305 942:-0.080083169 943:-0.019985089 944:-0.02162607 945:-0.016133353 947:0.055417057 948:-0.0018821072 949:-0.049387429 950:-0.016133353 952:-0.00023535587 953:-0.00065847021 954:0.16902007 955:-0.036297016 956:-0.009292203 958:-0.00064072653 959:0.07927011 960:-0.041837227 961:-0.0094237253 962:-0.020853704 963:-0.0074231713 964:-0.073455416 965:-0.00036454521 966:-0.00071344915 967:-0.027465537 968:0.016635513 969:-0.0053109485 970:-0.025016146 971:0.072240539 972:-0.018837424 973:-0.027894564 974:-0.036067333 975:-0.051411953 976:-0.12694849 977:-0.0025592372 978:0.014780987 979:-0.023263028 980:0.067048401 981:-0.0034748462 983:-0.00020844922 985:-0.03801053 986:-0.048660293 987:-0.081368431 988:-0.064011037 989:-0.0057491474 990:-0.02627158 991:0.037745334 992:-0.098509349 993:-0.040299304 994:0.072359905 995:-0.016295094 996:-0.14097157 997:-0.0068089999 998:0.082815729 999:0.072892301 1000:-0.0063342326 1001:-0.0034748462 1002:0.033352546 1003:-0.00048956642 1004:0.15028557 1005:-0.00036454521 1007:-0.020363258 1008:-0.1683265 1009:-0.01931764 1010:-0.00054581376 1011:-0.00045260109 1012:-0.00020844922 1013:0.035953842 1014:-0.0060291719 1015:-0.0060291719 1016:-0.0060291719 1017:-0.0060291719 1018:-0.11350507 1019:-0.058076516 1020:-0.058076516 1023:-0.027894564 1024:-0.027894564 1025:-0.040167827 1026:-0.040167827 1027:0.058400176 1028:-0.032861512 1029:-0.016651915 1030:-0.019985089 1031:-0.036714174 1032:-0.036714174 1033:-0.016651915 1034:-0.016651915 1035:-0.037585847 1036:-0.080962688 1037:-0.073612645 1038:-0.016651915 1039:-0.014086236 1040:0.11612507 1041:-0.033911478 1043:-0.01543729 1045:-0.0075637787 1046:-0.00084598415 1047:-0.011365172 1049:-0.00038002129 1050:-0.023263028 1051:-0.0045251162 1052:-0.0060291719 1053:-0.00065847021 1054:-0.00077301747 1056:-0.0081871981 1057:-0.044723324 1058:-7.5438671e-005 1061:-5.9497561e-005 1062:-0.00062131189 1063:-0.0060291719 1064:-0.0028633575 1065:-2.8683535e-005 1066:-0.0017059091 1068:-0.045265637 1069:-0.00040147299 1070:-0.03807972 1071:-3.1977987e-005 1072:-0.00084598415 1073:-0.011061816 1074:-0.00084598415 1075:-0.0063747386 1076:-0.011365172 1077:-0.00065847021 1078:-0.032348398 1079:-0.03251512 1080:-0.0012097409 1081:-0.037841588 1082:-0.0015328663 1083:-0.0049960301 1084:-0.0065409569 1085:-0.011365172 1087:-0.021736201 1088:-0.0087629426 1089:0.083819143 1090:-0.0063747386 1091:0.062946439 1092:-0.0048294705 1093:-0.0013169404 1094:-0.011365172 1095:-0.010600965 1096:-0.0030559772 1097:-0.0087629426 1098:-0.14310107 1099:0.60702068 1100:-0.14921802 1101:0.00480195 1102:-0.17960687 1103:-0.0048294705 1104:-0.20003816 1105:-0.34955797 1106:-0.073612645 1107:0.12831773 1108:-0.35555714 1109:-0.012863628 1111:-0.079164475 1112:-0.0094237253 1113:-0.57250863 1114:-0.0060291719 1115:-0.0060291719 1116:-0.058076516 1118:-0.027894564 1119:-0.040167827 1120:-0.070218273 1121:-0.11180828 1122:-0.032861512 1123:-0.036714174 1124:-0.016651915 1125:-0.080962688 1126:-0.020343771 1127:-0.026988503 1128:-0.03807972 1129:-0.010600965 1130:-0.14310107 1131:-0.2018746 1132:-0.058775116 1133:-0.0052464418 1134:-0.058775116 1135:-0.01352195 1136:-0.25125733 1137:-0.30002522 1138:-0.081498854 1140:-0.011962096 1141:-0.032348398 1142:0.079989865 1143:0.068606369 1144:0.038848065 1145:0.098308459 1146:-0.059642706 1147:-0.093255743 1148:-0.016295094 1149:-0.002185052 1150:-0.035297617 1151:-0.045265637 1152:-0.0090523921 1153:-0.030226171 1155:-0.036297016 1156:-0.037604313 1157:0.070204005 1158:-0.00084598415 1159:-0.02146242 1160:-0.01543729 1161:-0.069236808 1162:-0.00029525883 1164:0.07898812 1165:-0.0069934786 1166:-0.00010565524 1167:-0.011965706 1168:-0.024894414 1169:-0.0013918625 1170:-0.019197464 1171:-0.021403084 1172:-0.0016483114 1173:-0.019985089 1175:-0.049481615 1176:-0.00052746956 1177:-0.081566237 1178:-0.059179887 1179:-0.04863809 1180:-0.00084598415 1181:-0.0043509165 1182:0.0040754545 1183:0.072240539 1184:-0.0094697177 1185:-0.054511443 1186:-0.00029829962 1187:-0.0028615959 1188:-0.0074231713 1189:0.011743356 1190:-0.011538014 1191:0.030320136 1192:-0.018923368 1193:-0.01213443 1194:-0.0037536013 1195:0.046208329 1196:-0.0059578903 1197:-0.023720546 1198:-0.019908717 1199:-0.032196373 1200:-3.1977987e-005 1201:0.049920458 1202:-0.16107927 1203:-0.015072506 1204:-0.027198816 1205:-0.066093847 1206:-0.048955698 1207:0.049920458 1208:-0.11441553 1209:0.028522542 1210:-0.00020844922 1211:-0.11069836 1212:-0.00064072653 1213:0.0095583294 1214:-0.023750497 1215:-0.023750497 1216:-0.014119066 1217:-0.063626267 1218:-0.0075637787 1221:-0.0094783595 1222:-0.0229556 1223:-0.00065847021 1224:-0.013511311 1225:-0.0016483114 1226:-0.0051266868 1227:-0.092491776 1228:-0.015926002 1229:-0.030799363 1230:-0.0030559772 1232:-0.028431086 1233:-0.0044445293 1234:-0.015639756 1235:-0.032178383 1236:-0.00023535587 1237:-7.5438671e-005 1238:-0.00065847021 1239:-0.030871611 1240:-0.065919623 1241:-0.0003984592 1242:-0.092716374 1243:-0.0073026996 1244:-0.053939093 1245:-0.028657028 1247:-3.1977987e-005 1248:0.053081222 1249:-0.016295094 1250:-0.002185052 1251:-0.012776027 1252:0.01565432 1253:-0.00028661729 1254:-0.010238155 1255:-0.0006249483 1256:-0.040451735 1257:-0.00034086054 1258:-0.018956324 1259:0.016073352 1260:-0.03619929 1261:-0.069454201 1262:0.00084998918 1263:-0.040545356 1264:-0.030359577 1265:-0.035227451 1266:-0.048955698 1267:-0.0046509695 1268:-0.054700151 1269:-0.013579941 1270:-0.067290515 1271:-0.034885637 1272:-0.0077607837 1273:0.044808216 1274:0.00017920285 1275:0.028643336 1276:-0.0075637787 1277:-0.0075637787 1278:0.084414765 1279:0.10371739 1280:0.045898441 1281:-0.000432662 1282:-0.027852055 1283:-0.25792652 1284:0.056469981 1285:-0.0040969583 1286:-0.0074231713 1288:-0.015639756 1289:-0.046018343 1290:-0.05272482 1291:-0.00065847021 1292:-0.0025592372 1293:-0.024894414 1295:-0.080502212 1296:-0.034885637 1297:-0.051186908 1298:-0.011061816 1299:0.044395901 1300:-0.045885861 1301:-0.056854934 1302:0.05538388 1303:-0.0045251162 1304:-0.032348398 1305:-0.030914955 1306:-0.013081914 1307:-0.029601969 1308:-0.023263028 1309:-0.023720546 1310:0.064777046 1311:-0.017877461 1312:-6.7664441e-005 1313:-0.0098879226 1314:-0.00084598415 1315:-0.025016146 1316:-0.0045251162 1317:-0.019985089 1319:-0.020763511 1320:0.069783166 1321:-0.072300434 1322:-0.035227451 1323:-0.18512666 1324:0.072359905 1325:-0.14392987 1326:-0.035528991 1327:-7.5438671e-005 1328:-0.0062191905 1330:-0.030442329 1331:-0.073931716 1332:-0.015639756 1333:-0.051988229 1334:-0.010722976 1335:-0.00030413122 1336:-0.032584403 1337:0.041277245 1338:-0.0012706938 1340:-0.0053685573 1341:-0.0033606193 1342:-0.000945293 1343:-7.5438671e-005 1344:0.061022349 1345:-0.076299496 1346:-0.0051122885 1347:0.061917704 1348:-0.0057465122 1349:-0.035500549 1350:-0.0067161703 1351:-0.084123813 1352:-0.0068089999 1353:-0.0060291719 1355:-0.012863628 1356:-0.0090523921 1359:-0.056905963 1360:0.072240539 1361:0.099400379 1362:-0.00077279937 1364:-0.066093847 1365:-0.029641397 1366:0.025009787 1367:0.0044924072 1368:0.066429161 1369:-0.066872917 1370:-0.010238155 1371:-0.0229556 1372:0.066429161 1373:-0.0098879226 1374:-0.0003984592 1375:-0.029322878 1376:-0.02122874 1377:-0.013555251 1378:-0.073466159 1379:-0.0094237253 1380:-0.0094237253 1381:-0.034160655 1382:-0.026571574 1383:-0.0014317218 1384:-0.018847451 1385:-0.010238155 1386:-0.010238155 1387:0.082366936 1388:-0.000432662 1389:-0.00023535587 1390:-0.012700764 1391:-0.047911309 1393:-0.019577127 1395:-0.057029493 1396:0.015333016 1397:-0.014545735 1398:-0.044084068 1399:-0.0018434298 1400:-0.013511311 1401:-0.05254316 1402:0.088498458 1403:0.039069932 1404:0.042084672 1405:-0.02128529 1406:-0.0032966228 1407:-0.015639756 1408:-0.094718188 1409:-0.036369428 1410:-0.010238155 1411:0.074738279 1413:-0.0045251162 1415:0.19671921 1416:0.11922274 1417:-0.022992464 1418:-0.15047404 1419:-0.034780174 1420:-0.073996305 1421:-0.0048819277 1423:0.11382513 1424:0.055221908 1425:-0.0003984592 1426:0.1028648 1427:-0.0053416705 1428:-0.026321508 1429:0.10328422 1430:-0.016087184 1431:-0.0038460684 1432:0.092123494 1433:-0.011061816 1434:-0.044208888 1435:-0.31013897 1436:0.0010139869 1437:-0.050032292 1438:-0.1747826 1439:-0.021294245 1441:-0.17796445 1442:-0.0040969583 1443:-0.078917548 1444:-0.097279422 1445:-9.0264439e-005 1446:-0.028431086 1447:-0.01428217 1448:-0.086272158 1449:0.078908578 1451:-0.070624985 1452:-0.0045562675 1453:-0.045019913 1454:-0.067364752 1456:-0.0037536013 1457:-0.0022007991 1458:0.079240561 1459:-0.054235466 1460:-0.018624894 1461:0.059692089 1462:-0.054697603 1463:-0.016363852 1464:0.056106705 1466:-0.029886732 1468:-0.08988221 1469:0.04428409 1470:-0.037515868 1471:-0.015392555 1472:-0.039336581 1473:-0.01966829 1474:-0.019931899 1475:0.057062045 1476:0.022329811 1477:-0.014119066 1478:0.064394511 1479:-0.012413687 1480:-0.028123032 1481:0.10374612 1482:0.016486948 1484:-0.032711741 1485:-0.00054581376 1486:0.089938879 1487:-0.00054581376 1488:-0.012863628 1489:-0.030359577 1490:-0.022992464 1491:-0.00065847021 1492:0.059692089 1493:-0.012413687 1494:-0.00071260968 1495:-0.063651919 1496:-0.00071260968 1497:-0.012413687 1498:-0.076045558 1502:0.027292747 1503:0.027292747 1504:0.05954618 1505:0.037747785 1506:0.00019502093 1507:0.035637781 1508:0.00041337585 1509:0.019995125 1510:-0.014119066 1511:-0.1957293 1512:-0.034885637 1513:-0.062347692 1515:-0.0058248262 1516:-3.1977987e-005 1517:-0.0065409569 1518:-0.013806339 1520:-0.059099983 1521:-0.12789187 1522:-0.00076908944 1523:-0.020404011 1524:-0.040808022 1525:-0.058723878 1526:-0.0046101883 1527:-0.010238155 1528:-0.092816688 1529:-0.00077301747 1530:-0.013555251 1532:-0.025066871 1533:-0.090078741 1534:-0.057527259 1535:-0.017640615 1536:0.025483811 1537:0.47315744 1538:0.054271583 1539:0.12885149 1540:-0.044230767 1541:-0.061516501 1542:-0.00071260968 1543:-0.10900678 1544:0.0046058246 1545:0.15779608 1546:-0.1018895 1547:-0.029166795 1548:-0.01926757 1549:0.094292186 1550:-0.094286367 1551:0.078485869 1552:-0.091251887 1553:-0.050878078 1554:0.039600261 1555:-0.017877461 1556:0.054332979 1557:-0.02508606 1558:-0.0066424012 1559:-0.016737044 1560:0.07898812 1561:0.025793601 1562:-0.011061816 1564:-0.25947121 1565:-0.011171929 1566:0.15842433 1567:-0.069987342 1569:-0.033185445 1570:-0.15808797 1571:0.047641002 1572:-0.085961089 1573:-3.1977987e-005 1574:-0.060933415 1575:-0.030323712 1576:0.080040038 1577:-0.029220816 1578:-0.046362285 1579:-0.033729143 1580:-0.040140435 1581:-0.0034389666 1582:-0.016133353 1583:-0.15763068 1584:-0.0066424012 1585:-0.021403084 1588:-0.086272158 1589:-0.02636241 1590:-7.0425536e-005 1591:-0.0737639 1593:-0.052091651 1594:-0.031136155 1595:-0.030871611 1596:-3.1977987e-005 1598:0.074108638 1600:-0.00045260109 1601:-0.07754714 1602:-0.0020052539 1603:0.067321084 1604:0.10972929 1605:-0.032348398 1607:-0.022478256 1608:-0.00057313149 1609:-0.011861002 1610:-0.00065847021 1611:-0.0032364305 1612:-0.00020844922 1613:-0.051348012 1614:-0.012413687 1615:-0.073689692 1616:-0.073981591 1617:-0.025016146 1618:-0.035016332 1619:-0.01429767 1620:-0.020853704 1621:-0.00062131189 1622:-0.00071344915 1623:-0.13422252 1624:-0.0074231713 1625:0.0025789405 1626:0.1436107 1627:-7.5438671e-005 1628:-0.076277703 1629:-0.024834551 1631:0.11306673 1632:-0.073653474 1633:-0.0010171707 1634:-0.036519691 1635:-0.1954219 1636:0.11071806 1637:-0.14094563 1638:-0.13183925 1639:-0.10297356 1640:-0.040808022 1641:-0.020404011 1642:-0.030198095 1643:-0.000432662 1644:-0.13883916 1645:-0.16045231 1646:-0.0029857664 1647:0.00010788666 1648:-0.010593302 1649:-0.015502032 1650:-0.031915884 1653:-0.068866812 1654:-0.0229556 1655:-0.019985089 1656:-0.068927795 1658:0.039654437 1659:-0.00077279937 1660:-0.11407617 1661:-0.00084598415 1662:0.035249975 1663:-0.030871611 1664:0.10445795 1665:-0.00073333905 1666:-0.00074055942 1667:-0.061516501 1668:-0.00074055942 1669:-0.082028612 1670:-0.018087514 1671:-0.0042727669 1672:0.068586774 1673:-0.00029538531 1674:-0.043104704 1675:-0.071889676 1676:-0.00038002129 1677:-0.0036256907 1678:-0.064700127 1679:-0.00076004257 1680:-0.051725049 1681:0.10719992 1682:-0.0018434298 1683:-0.053861443 1684:-0.0037987866 1685:-0.0049985056 1686:-0.00065847021 1687:-0.00065847021 1688:-0.0046270587 1689:-0.015502032 1690:0.019559687 1691:-0.0098879226 1693:-0.034525484 1694:-0.01350629 1695:-0.046065666 1696:-0.077687666 1697:-0.00045260109 1698:0.024208726 1699:-0.045565069 1700:0.06341996 1701:-0.030717559 1702:-0.079765715 1703:-0.016087184 1704:0.014780987 1705:-6.3955973e-005 1706:-0.075077206 1707:-0.045940705 1708:-0.02436164 1710:-0.11982813 1711:-0.0063342326 1712:-0.013511311 1713:-0.064700127 1714:-0.013511311 1715:-0.14811158 1716:-0.046541918 1717:-0.058775116 1718:-0.026910253 1719:-0.026910253 1720:-0.00071260968 1721:-0.023136642 1722:-0.01350629 1723:-0.044789232 1724:0.060640272 1725:0.04146811 1726:-0.00032918158 1727:-0.040679663 1728:-0.049387429 1730:-0.13945797 1731:-0.02146242 1732:-0.066414692 1733:-0.00023535587 1734:-0.061818536 1735:0.064270303 1736:-0.00014085107 1737:-0.036462788 1738:-0.0006172721 1739:-0.00024516482 1740:0.096621633 1741:-0.030871611 1742:-0.054705471 1743:-0.00064072653 1744:-3.1977987e-005 1745:0.079244435 1746:-0.034006126 1748:-0.067051053 1749:0.097786948 1750:-0.10492823 1752:-0.00077301747 1753:-0.00032918158 1754:0.081812128 1755:-0.0071778768 1756:-0.0071778768 1757:0.0064668208 1758:-0.0021709816 1759:-0.014119066 1760:0.038647931 1761:-0.048965894 1762:-0.00023535587 1763:-0.054931838 1764:0.04568677 1765:-0.054931838 1766:0.050421767 1767:0.048538689 1768:0.20343398 1769:-0.060179301 1770:0.011683161 1771:-0.064671874 1772:0.038529973 1773:0.11931641 1774:-0.049481615 1775:-0.013511311 1776:0.020885568 1777:-0.099649094 1778:-0.1143759 1779:-0.0054174517 1780:-0.071276605 1781:-0.025016146 1782:-0.00062131189 1783:0.11647726 1784:0.049784184 1785:-0.041212212 1786:0.096831329 1787:-0.20793189 1788:-0.064931437 1789:-0.000817594 1790:-0.000817594 1791:0.038476542 1793:-0.0037987866 1794:0.055218004 1795:-0.074095607 1796:-0.098928019 1797:-0.01585527 1798:-0.0070773605 1799:-0.0065409569 1803:-0.00010462447 1804:-0.073981591 1805:0.021889737 1806:-0.028431086 1807:-0.040140435 1808:-0.013509184 1809:-0.073466159 1810:-0.013511311 1811:0.067048401 1812:-0.029173777 1813:-0.026505636 1814:-0.026505636 1815:-0.056789376 1816:-0.015742352 1817:0.0093384488 1818:-0.065595709 1819:-0.070800029 1820:0.033602498 1821:-0.048400067 1822:-0.026910253 1823:-0.0011479675 1824:-0.012793647 1825:-0.00011899512 1826:-3.1977987e-005 1827:-0.041990969 1828:0.068606369 1831:-0.00057359081 1832:-0.008117591 1833:-0.00040147299 1834:-0.03619929 1835:-0.00051415875 1836:-0.15814279 1837:-0.0063342326 1838:0.0003784936 1839:0.054846834 1840:-0.13057762 1841:-0.019694146 1842:-0.039653543 1843:-0.0070925523 1844:-0.0067545921 1845:-0.062309168 1846:-0.00084598415 1847:-0.019322755 1848:-0.11576451 1849:-0.057394426 1850:-0.094718188 1851:-0.0068089999 1852:-0.0007060676 1853:-0.11035152 1854:-0.053011272 1855:-0.028945416 1856:-0.024259204 1857:-0.007245495 1858:-0.00051415875 1859:-0.028945416 1860:-0.028945416 1861:-0.026505636 1862:-0.037841588 1863:0.033919491 1864:-0.060966358 1865:-0.031389587 1866:-0.011365172 1867:-0.098809004 1868:-0.0018434298 1869:-0.084039159 1870:-0.040063906 1871:-0.025421759 1872:-0.0022926359 1873:-0.036714174 1874:0.063119367 1875:0.038476542 1876:-0.065960452 1877:-0.022884171 1879:0.011181347 1880:-0.0075637787 1881:0.00086826255 1882:0.020279754 1883:-0.025941778 1884:-0.050205395 1887:-0.03114951 1888:-0.00062451244 1889:-0.054560229 1891:-0.043381147 1892:-0.13991378 1893:-0.011458663 1894:-0.011438504 1895:-0.076814465 1896:0.065558963 1897:-0.029116277 1898:-0.013687465 1899:-0.083828121 1900:-0.00054581376 1901:-0.11041591 1902:-0.015957288 1903:-0.030359577 1904:-0.027894564 1905:-0.032086786 1906:-9.9534875e-005 1907:-0.023136642 1908:0.056533366 1909:-0.080185033 1910:0.11373176 1911:-0.07900618 1912:0.094581366 1913:-0.042640682 1914:0.0011252733 1915:-0.0087629426 1916:-0.0063747386 1917:-0.00071260968 1918:-0.01931764 1919:-0.020404011 1920:-0.031786043 1921:-0.018956611 1922:-0.049935114 1923:-0.00020844922 1924:-0.076906666 1925:-0.0229556 1926:0.010009365 1927:0.0096425582 1928:-3.1977987e-005 1929:-0.017678158 1930:-0.038165353 1932:-0.049387429 1933:-0.0077694692 1934:-0.0011884528 1935:0.10165157 1936:-0.029575765 1937:0.033242561 1938:-0.010301082 1939:-0.00052989105 1940:-0.085348174 1941:-0.013687465 1942:0.051851612 1943:0.0095750419 1944:-0.041990969 1945:-0.046826951 1946:-0.043405253 1947:0.042084672 1948:-0.00020844922 1949:-0.038030677 1950:-0.076061353 1951:-0.0053928439 1952:-0.0051191244 1953:-0.020363258 1954:0.028984781 1955:0.04999391 1956:-0.020363258 1957:-0.26210755 1958:-0.086732514 1959:-0.0018726555 1960:0.0017467844 1962:-0.017877461 1963:-0.00074055942 1965:-0.047540218 1966:-0.013509184 1967:0.066694625 1968:-0.0075479494 1969:-0.045265637 1970:-0.00062131189 1971:0.10719992 1972:0.00058238133 1973:0.068094298 1974:-0.021097494 1975:-0.022737019 1976:-0.022737019 1977:-0.0051184744 1978:-0.085003518 1979:-0.00041331077 1980:-0.071276605 1981:-0.0016919683 1982:-0.0040969583 1983:-0.029821448 1984:-0.067606218 1985:-0.013509184 1986:-0.13860403 1987:-0.029116277 1988:0.0003784936 1989:0.041590616 1990:0.029316915 1991:0.030939206 1992:0.063813575 1993:-0.032150805 1994:0.072150178 1995:-0.019591341 1996:-0.0063342326 1997:-0.050760686 1998:-0.062842332 1999:-0.040260062 2000:-0.0075975731 2001:-0.046483908 2002:-0.055046462 2003:-0.00024516482 2004:0.042260744 2005:-0.00038002129 2006:0.077833474 2007:0.018588327 2009:-0.0041049886 2011:-0.0003625105 2012:-0.0030559772 2013:-7.5438671e-005 2014:-0.10513214 2015:0.079240561 2016:0.079240561 2018:-0.050067011 2019:0.098812081 2020:-0.0059150634 2021:-0.0847205 2022:-0.0068089999 2023:-0.0068089999 2024:-0.00084598415 2025:0.035049308 2026:-0.01543729 2027:0.032256894 2028:-0.016087184 2029:-0.050511844 2030:-0.0098879226 2031:-0.00026373478 2032:-0.086122431 2033:-0.0032493849 2034:-0.051186908 2035:0.038412627 2036:-0.0013086841 2037:-0.061745793 2038:0.080402218 2040:-0.018901791 2041:-0.018584289 2042:-0.073169261 2043:-0.015502032 2044:0.022065084 2046:0.057974994 2047:-0.27803844 2048:-0.02125106 2049:-0.066759281 2050:0.053275023 2051:0.033687051 2052:-0.033046924 2053:-0.00064072653 2054:-0.001771846 2055:0.01592622 2056:-0.00057313149 2057:0.07858263 2058:-0.012810416 2059:-0.040514406 2060:-0.034885637 2061:-0.012810416 2062:-0.013325808 2063:-0.018893616 2064:-0.040451735 2065:-0.0072182473 2066:-0.00024516482 2067:-0.0068089999 2068:-0.00081836624 2069:-0.01213443 2070:-0.037263401 2071:0.046208329 2072:0.035659764 2073:-0.00023535587 2074:-0.056552108 2075:-0.0037987866 2076:-0.034004476 2077:-0.0022007991 2078:-0.0045251162 2079:-0.030323712 2080:-0.011061816 2081:-0.041212212 2082:-0.00023535587 2083:-0.011061816 2084:-0.18223715 2085:-0.021077938 2086:-0.00064072653 2087:-0.051411953 2088:-0.076906666 2089:-0.13069566 2090:-0.015502032 2091:-0.0065409569 2092:-0.067714833 2093:-0.019619932 2094:-0.039239865 2095:-0.012863628 2096:0.082815729 2097:0.092142008 2098:-0.0090523921 2100:-0.017877461 2101:0.064394511 2102:-0.082424425 2103:-0.021076843 2104:-0.020504398 2105:-0.031563114 2106:0.031331241 2107:-0.060579531 2109:-0.017877461 2110:0.018004805 2111:-0.0026964219 2112:0.055221908 2113:-0.019985089 2114:-0.015086281 2115:-0.011365172 2116:-0.00023535587 2118:-0.027473101 2121:-0.036979821 2122:0.082955487 2123:0.18713571 2124:-0.098682031 2125:-0.041954137 2126:0.018822085 2128:-0.036462788 2129:0.00041609985 2130:-0.015502032 2131:-0.0068089999 2132:-0.00044431485 2133:-0.00084598415 2134:-0.00031954635 2135:-0.00030413122 2136:-0.048108067 2137:-0.032178383 2139:-0.0011978785 2140:-0.012863628 2141:-0.0074231713 2142:-0.0052464418 2143:-0.056417339 2144:-0.012810416 2146:-0.023286512 2147:-0.1076742 2148:-0.02627158 2149:-0.022738978 2150:-0.17284398 2151:-0.025066871 2153:-0.022730343 2154:-0.00084598415 2155:-0.038932282 2156:-0.010193978 2157:-0.051560458 2158:-0.0060585206 2159:0.027688131 2160:-0.015897295 2161:-0.026910253 2162:-0.043381147 2163:-0.00052746956 2164:-0.00064072653 2165:0.031458091 2166:-0.0098879226 2167:-0.030921435 2168:-0.079867296 2169:-0.033911478 2170:0.055207748 2171:0.067392327 2172:-0.020033823 2173:-0.013555251 2174:-0.065075099 2175:-0.0058779763 2176:0.01671141 2177:0.0030109196 2178:-0.012863628 2179:0.015214011 2180:-0.0072615272 2181:-0.03740941 2182:-0.022737019 2183:-0.11026742 2184:-0.02309569 2185:-0.075129569 2186:-0.15923443 2187:-0.019261988 2189:0.027195612 2190:0.081354283 2191:-0.00062131189 2192:-0.012114449 2193:-0.00030413122 2194:-3.1977987e-005 2196:0.0030109196 2197:0.011713533 2198:-0.030323712 2199:0.0024078751 2200:-0.0041049886 2201:0.0064668208 2202:-0.021736201 2203:0.073169775 2204:-0.033858482 2205:-0.065390214 2206:-0.027894564 2207:-0.089501344 2208:0.081927843 2209:-0.00054581376 2210:-0.029891994 2211:0.12167582 2212:-0.075683177 2213:-0.000432662 2214:-0.000432662 2215:0.067392327 2216:-0.021403084 2217:-0.034525484 2218:-0.034525484 2219:-0.17780085 2220:0.022858229 2221:-0.00077279937 2222:-0.036111206 2223:-0.00023535587 2224:-0.022411097 2225:-0.026321324 2226:-0.0056030108 2227:-0.0067545921 2228:-0.011061816 2229:-0.0060291719 2230:-0.011686882 2231:0.05628591 2232:-3.1977987e-005 2233:-0.0078828856 2234:0.14246623 2236:-0.043752372 2237:-0.21435852 2238:-0.0060291719 2239:-0.011962096 2240:0.036552269 2242:-0.054560229 2243:-0.079991326 2244:0.051148795 2246:-0.00032918158 2247:-0.0074231713 2248:-0.10007264 2249:-0.0038353186 2250:-0.034885943 2251:0.063710488 2252:-0.14010938 2253:-0.015742352 2257:-0.00065847021 2258:-0.0022007991 2259:-0.00032918158 2260:-0.020977069 2261:-0.012863628 2262:-0.00044431485 2263:-0.010294558 2264:-0.03251512 2265:0.0032553093 2266:-0.01966829 2267:-0.030359577 2269:-0.0030559772 2270:-0.0087629426 2271:-0.021924848 2272:-0.00084455655 2273:-0.0034504454 2274:-0.00065847021 2275:0.01260893 2276:0.013040191 2277:-0.044808026 2278:-0.046762425 2279:0.038476542 2280:-0.090080678 2281:0.11235969 2282:0.072501883 2283:-0.0014317218 2284:-0.038432315 2285:-0.00038002129 2286:-0.0037536013 2287:-0.0063342326 2288:-0.00052746956 2289:-0.18776669 2290:0.082366936 2291:-0.022145139 2292:0.00086826255 2293:0.082366936 2294:-0.068644047 2295:-0.048108067 2296:-0.029624404 2299:-0.0052464418 2301:-0.019614141 2302:-0.012863628 2303:-0.012863628 2304:-0.025727255 2305:-0.067783035 2306:-0.067473635 2307:0.11324683 2310:-0.021739455 2311:0.061393674 2312:-7.5438671e-005 2313:-0.0087629426 2314:-0.066583291 2315:-0.011052043 2316:-0.0087629426 2317:-0.0029709621 2318:-0.0054174517 2319:0.041590616 2320:-0.0054174517 2321:-0.022127429 2322:-0.00036708088 2323:0.050421767 2324:0.11986103 2325:0.021565922 2326:-0.042248651 2327:-0.01966829 2328:-0.01966829 2330:0.11843108 2331:0.017737785 2332:0.001949292 2333:-0.011098252 2334:-0.16573079 2335:0.063754812 2336:0.11981058 2338:0.14099973 2341:-0.02627158 2342:-0.033291586 2343:-0.030323712 2344:-0.029173777 2345:0.050841581 2346:-0.0084526008 2347:-0.0084814448 2348:-0.0027832305 2350:0.14407727 2351:-0.0084272837 2352:0.047488347 2353:-0.080410823 2354:-0.1783683 2355:-0.00026373478 2356:0.17036457 2357:0.038577288 2358:-0.00030413122 2359:-0.23672709 2360:0.019715169 2361:-0.0018434298 2362:0.0709759 2363:0.18099499 2364:-0.013046776 2365:-0.02636241 2366:-0.00031954635 2367:-0.00041331077 2368:-0.017028335 2369:-0.035980511 2370:-0.015639756 2372:-0.015639756 2373:-0.039572801 2374:-0.054171469 2375:-0.0034073128 2376:-0.0037987866 2378:-0.058345973 2379:-0.00031954635 2380:-0.018969651 2381:0.070426844 2382:0.035049308 2383:-0.042981241 2384:-0.064158984 2385:0.097941548 2386:0.082955487 2387:-0.042498402 2388:-0.051186908 2389:-0.0063342326 2390:-0.022992464 2391:0.048768852 2392:-0.101762 2393:-0.054560229 2394:-0.059099983 2395:0.044983726 2396:-0.057527259 2397:-0.00065847021 2398:0.030320136 2399:0.05538388 2400:-0.0084272837 2401:-0.020404011 2402:0.12820153 2403:0.034359612 2404:0.1748846 2405:0.016582558 2406:0.096831329 2407:0.027404802 2408:0.012269226 2409:0.067692861 2410:0.02532733 2411:0.27078497 2412:-0.013687465 2413:-0.036462788 2414:-0.033911478 2415:-0.00027058853 2416:-0.0032364305 2417:-0.0044015981 2418:-2.8284198e-019 2419:-0.0039480068 2420:0.064546108 2424:0.035075851 2425:0.049751211 2426:-0.056837626 2427:-0.074559629 2430:0.052869081 2432:0.00017920285 2434:-0.0058489526 2435:0.0016080621 2436:-0.090293139 2437:-0.0037987866 2438:-0.0037987866 2439:0.0023581518 2440:-0.0094196573 2441:-0.00065847021 2442:-0.016087184 2443:-0.032178383 2444:-0.042914916 2445:-0.0019740034 2446:-0.0026131757 2447:-0.0247779 2448:-0.0007842902 2449:-0.027894564 2450:-0.01543729 2451:-0.025154257 2452:-0.010105455 2453:-0.011098252 2454:0.10601272 2455:0.036552269 2456:-0.000432662 2457:-0.021767922 2458:-0.000432662 2459:0.030939206 2460:-0.0067161703 2461:-0.0034389666 2462:-0.00062131189 2463:-0.00065847021 2464:0.097077377 2465:0.0052077547 2466:-0.09013091 2467:-0.050659824 2468:0.15548851 2469:-0.021924848 2470:-0.055229966 2471:-0.057314057 2472:0.094949767 2473:-0.00099221396 2474:0.061426859 2476:-0.013073518 2477:-0.0229556 2478:-0.060707744 2479:-0.046047717 2480:-0.1571437 2481:-0.082438536 2482:-0.099642754 2483:-0.014545735 2484:0.069148391 2485:-0.061897196 2486:-0.025016146 2487:-0.072179601 2488:-0.016087184 2489:-0.020483216 2490:0.057398111 2491:-0.057618745 2492:-0.019908717 2493:-0.0034389666 2494:-0.017469302 2495:-0.01695521 2496:-0.0052464418 2498:-0.19180091 2499:-0.034885637 2500:-0.080195747 2501:-0.26354483 2502:-0.23479086 2503:-0.10179824 2504:-0.014545735 2505:-0.031136155 2506:-0.00037867631 2507:0.052503258 2508:-0.055830035 2509:-0.025066871 2510:-0.00058180961 2511:-0.027706886 2512:-0.05900589 2513:-0.058218222 2514:-0.011171929 2515:-0.0065409569 2516:0.023554713 2518:0.029316915 2519:-0.0059984708 2520:-0.00052746956 2521:-0.029116277 2522:-0.039458774 2523:-0.035395745 2524:0.068254724 2526:-0.045885861 2527:-0.20475738 2528:-0.068252467 2529:-0.0018434298 2530:-0.029116277 2531:-0.0014317218 2532:-0.02636241 2533:0.028048288 2535:-0.14164892 2536:0.089639701 2537:-0.030198095 2538:-0.0094237253 2539:0.053570952 2540:-0.030871611 2541:-0.13437428 2542:-0.0024937815 2543:-0.067710824 2544:0.067048401 2545:-0.032178383 2546:-0.002664801 2547:-9.9013305e-005 2548:-0.054560229 2549:-9.9534875e-005 2550:-0.05904362 2551:0.091194339 2552:-0.069001146 2553:0.0071789315 2554:-0.012276953 2555:-0.00053773378 2556:-0.00030413122 2557:-0.0046270587 2558:-0.039382458 2559:-0.0056030108 2560:-0.030812761 2561:0.12787436 2562:-0.01818268 2563:-0.023257509 2564:-0.037841588 2565:-0.00041331077 2566:-0.022127429 2567:-0.033912517 2568:-0.013511311 2569:-0.013226914 2570:-0.029999824 2572:-7.5438671e-005 2573:-0.034885637 2574:-0.00065847021 2575:-0.037841588 2576:-0.13477087 2577:-0.00496969 2578:-0.1043415 2579:-0.016295094 2580:-0.057527259 2581:-0.048817355 2582:-0.00029829962 2583:0.22918531 2584:-0.045909442 2585:0.098731905 2586:-0.057661012 2587:-0.045228213 2588:0.087223515 2590:-0.089705527 2591:-0.00077279937 2592:0.050802551 2594:-0.00023535587 2595:0.079929501 2596:-3.1977987e-005 2597:-9.5935437e-005 2598:-0.0097582769 2599:-7.5438671e-005 2600:-0.016989717 2601:-0.0011145682 2602:-0.018772962 2603:-0.010238155 2604:-0.14134972 2605:-0.0359932 2606:-0.048940659 2607:-0.11591799 2608:-0.0014784501 2609:-0.008936625 2610:-0.0054174517 2611:-0.00084598415 2612:-0.020404011 2613:-0.11437719 2614:-0.000817594 2615:-0.0098879226 2617:-0.0083685219 2618:-0.034263793 2619:0.014725479 2620:-0.036218692 2621:-0.00026373478 2622:-0.061745793 2623:-0.040260062 2624:-0.086064167 2625:0.12787436 2626:-0.03300051 2627:0.056533366 2628:-0.00023535587 2630:-0.061469935 2631:0.059530932 2632:-0.011061816 2633:-0.085961089 2634:-0.085961089 2635:-0.00057313149 2636:0.054271583 2637:-0.050515004 2638:0.13082904 2639:0.13550121 2640:0.20474197 2641:-0.049671177 2642:-0.050065499 2643:-3.7425605e-005 2645:-0.018754549 2646:-0.011061816 2647:0.00041384815 2649:0.024172191 2650:0.08971528 2651:-0.030198095 2652:0.075983614 2653:0.088363901 2654:-0.00075880374 2655:-0.0060291719 2656:-0.00040147299 2657:-0.11782809 2658:-0.030323712 2659:-0.070472814 2660:-0.13989617 2661:-0.069771275 2662:0.01945219 2663:-0.039393544 2664:-0.0033606193 2665:-0.03906893 2666:-0.00023535587 2667:-0.014545735 2668:-0.022127429 2669:0.0017197338 2671:-0.065110147 2672:-0.042031445 2673:-0.065035529 2674:-0.094977513 2675:-0.034263793 2676:-0.00023535587 2677:-0.00065847021 2678:0.083025306 2679:-0.014545735 2680:-0.00023535587 2681:-0.040260062 2682:-0.019985089 2683:-0.019209782 2684:0.0032875598 2685:-0.0063747386 2686:-0.040679663 2687:-0.0040969583 2688:-0.0015383124 2689:-0.013325808 2690:-0.019012494 2691:0.04929496 2692:-0.0034748462 2693:-0.0034748462 2694:-0.0067545921 2695:-0.020309966 2696:-0.01213443 2697:-0.0011884528 2698:-0.0090523921 2699:-0.0052464418 2700:-0.041182432 2701:-0.0083685219 2702:-0.01350629 2704:-0.0054511884 2705:-0.016133353 2706:-0.030858146 2707:-0.025016146 2708:-0.089688383 2709:-0.057527259 2710:-0.0074231713 2712:-0.00036708088 2713:-0.030359577 2714:-0.037604313 2715:-0.069667764 2716:-0.010847438 2717:0.029127611 2719:-0.016133353 2720:-0.015639756 2721:0.07432244 2722:-0.01350629 2723:-0.01350629 2724:0.048133813 2725:0.047719907 2726:-0.013531617 2727:-0.019258363 2728:-0.012063879 2729:-0.044593059 2730:-0.0037987866 2731:-0.078538634 2732:0.11081816 2733:0.032887068 2734:-0.01926757 2735:-0.029116277 2736:-0.017877461 2737:-0.018840276 2738:-0.034352873 2739:-9.0264439e-005 2740:-0.060122799 2741:-0.026505636 2742:0.030320136 2743:-3.1977987e-005 2744:-0.097684659 2745:-0.00023535587 2746:-0.00084598415 2748:-0.00023535587 2750:-0.00023535587 2751:-0.022703143 2752:-0.02508606 2753:-3.1977987e-005 2754:-0.029116277 2755:-0.0059067421 2756:0.064394511 2757:-0.00045260109 2758:0.078485869 2759:0.060640272 2760:-0.016133353 2761:-0.088461958 2762:0.083852932 2763:-0.020217886 2764:-0.00023535587 2765:-0.058076516 2766:0.030320136 2767:0.088363901 2769:-0.012356577 2770:-0.00030413122 2771:-0.055674478 2772:-0.056069493 2773:-0.13386068 2774:0.061388172 2775:-0.0030559772 2776:-0.0016250415 2777:-0.00064072653 2778:-0.056174193 2779:-0.02914444 2780:0.061367188 2781:-0.059816524 2782:0.096347831 2783:-0.0015187517 2784:0.15760748 2785:-0.040545356 2786:-0.0067545921 2787:-0.00031954635 2788:-0.041990969 2789:0.02532733 2790:0.10103005 2791:0.063710488 2792:0.28536955 2793:0.082366936 2794:-0.060109463 2795:0.029021036 2797:-0.0083685219 2798:-0.011962096 2799:-0.088970758 2800:-0.049102146 2801:-0.016963206 2802:0.078768834 2803:-0.045840118 2804:-0.0229556 2805:0.05272267 2806:-0.013325808 2807:-0.036462788 2808:-0.040679663 2809:-0.0084272837 2810:0.00086826255 2811:-0.02240533 2812:-0.010835394 2813:-0.049303211 2814:0.097421467 2815:-0.081932999 2816:-0.057527259 2817:-0.14118196 2818:-0.00065847021 2819:-0.011061816 2820:-7.5438671e-005 2821:0.096465364 2822:-0.053939093 2823:0.024216695 2824:-0.025016146 2825:-0.080534607 2826:0.08677201 2828:-0.00015087734 2829:0.12941262 2830:-0.089008592 2831:-0.059099983 2832:-0.036462788 2833:-0.0063747386 2834:0.094292186 2835:-0.0092995297 2836:-0.01213443 2839:-0.01213443 2840:-0.20939428 2841:-0.011920667 2842:-0.0070508388 2843:0.042702276 2844:-0.074779689 2845:-0.0030559772 2846:-0.030871611 2847:-0.067115732 2848:-0.015869802 2849:0.034968238 2850:-0.041524563 2851:-0.010294558 2852:-0.0016483114 2853:0.028279107 2854:0.022359297 2855:-0.055152796 2856:0.1494043 2857:-0.053598762 2858:-0.015502032 2859:-0.048817355 2860:-0.00054581376 2861:-0.0051266868 2862:-0.00051415875 2863:-0.0025592372 2864:-0.0089524146 2865:-0.00071344915 2866:-0.12679431 2867:-0.018539688 2869:-0.019577127 2870:-0.050523635 2871:0.067392327 2872:-0.029624404 2873:-0.053706821 2874:0.0068859509 2875:-0.014362579 2876:0.071425304 2877:-0.025316922 2878:0.048515994 2879:-0.00088805682 2880:0.066548236 2881:0.20997056 2882:0.038647931 2883:-0.0057465122 2884:-0.085729368 2885:-0.011061816 2886:-0.0034504454 2887:0.087023303 2888:-0.00062131189 2889:0.06404157 2890:-0.12972681 2891:0.02558223 2892:0.036184419 2893:-0.015392555 2894:0.04418195 2895:-0.14084263 2896:-0.11950262 2897:-0.033911478 2898:-0.16568989 2899:-0.00031954635 2900:-0.00034085845 2901:0.019559687 2902:-0.012158361 2903:-0.028316054 2904:0.21688579 2905:0.049552146 2906:0.086108394 2907:0.016211553 2908:-0.020843154 2909:-0.0054385769 2910:0.12131338 2911:-0.011365172 2912:-0.020404011 2913:-0.0053416705 2914:-0.026505636 2915:-0.0018434298 2916:-0.0040969583 2917:-0.030359577 2918:0.01592622 2919:-0.0008574503 2920:-0.051486362 2921:-0.043381147 2922:-0.093433715 2924:-0.027694089 2925:0.083343476 2926:-0.067737125 2927:-0.041990969 2928:-0.014545735 2929:-0.0014372322 2930:-0.0030559772 2931:-0.00032918158 2932:-0.0055698017 2933:-0.054633029 2934:-0.071276605 2935:0.018588327 2936:-0.075329833 2938:0.063505881 2939:-0.016133353 2940:-0.037841588 2941:-0.020404011 2943:-0.0062351432 2944:-3.1977987e-005 2945:-0.022738978 2946:0.038412627 2947:-0.10960818 2948:-0.0048294705 2949:0.10445795 2950:0.16366096 2951:-0.059810095 2952:-0.0034748462 2953:-0.12685704 2954:-0.026175795 2955:0.018120524 2956:-0.041132212 2957:-0.01213443 2958:-0.10616627 2959:-0.054724943 2960:-0.040702414 2961:-0.0028271049 2962:-0.0033954694 2964:0.011048269 2965:-0.037593417 2966:-0.046283614 2967:-0.012413687 2968:-0.040246904 2969:-0.012338851 2970:-0.023720546 2971:-0.022871625 2972:-0.0099773947 2973:0.021141754 2974:-0.01966829 2975:-0.01966829 2976:-0.01966829 2977:0.04941912 2978:-0.01286051 2979:-0.0050542955 2980:-0.011686882 2981:-0.04653848 2982:-0.00054581376 2983:-0.017613726 2984:-0.0084272837 2986:0.095880859 2987:-0.10872955 2988:-0.013325808 2989:-0.037612177 2990:-0.00032918158 2991:-0.02627158 2992:-0.040140435 2993:-0.075740077 2994:-0.18034236 2995:-0.029896885 2996:-0.00040147299 2997:-0.41455281 2998:0.036694296 2999:-0.029896885 3000:-0.1915713 3001:-0.085348673 3002:-0.00027058853 3003:-0.018840276 3004:-0.011920667 3005:0.12521514 3006:-0.080054834 3007:-0.028431086 3008:-0.057472926 3009:-0.0075637787 3010:-0.013687465 3011:-0.010238155 3012:-3.1977987e-005 3013:0.096138038 3014:-0.0073026996 3015:-0.015958734 3016:-0.051348012 3017:-0.00041331077 3018:-0.0045094602 3019:-0.050032292 3020:-0.0028633575 3021:-0.015502032 3022:-0.015502032 3023:-0.023720546 3024:0.15734215 3025:-0.052643016 3026:-0.031052435 3027:-0.0014252194 3028:-0.00071260968 3029:-0.074335486 3030:-0.086068064 3031:-0.0037536013 3032:-0.023263028 3033:-0.0063342326 3034:0.014535672 3035:-0.00052746956 3036:-0.00023535587 3037:-0.00084598415 3038:-0.016133353 3039:-0.051292151 3040:-0.055046462 3041:-0.094922885 3042:-0.11009292 3043:0.044800732 3044:-0.16479568 3045:-0.099649094 3046:-0.00065847021 3047:-0.012752682 3048:0.096666835 3050:-0.0033606193 3051:-0.058076516 3052:-0.13597713 3053:-0.020363258 3054:-0.065830611 3055:0.089373551 3056:-0.01926757 3057:-0.034885943 3058:-0.0082863364 3059:-0.046859454 3060:-2.8682061e-005 3061:-0.00020844922 3062:0.074108638 3063:0.059530932 3064:-0.071630791 3065:-0.039970178 3066:-0.00084598415 3067:-0.016323747 3068:-0.025016146 3069:-0.077867553 3070:-0.045019913 3071:-0.11282102 3072:-0.04885086 3073:-0.0033606193 3074:-0.013266676 3075:0.035983931 3076:0.11981058 3077:-0.0044927537 3078:-0.033000741 3079:-0.069771275 3080:-0.0015383124 3081:0.0086941654 3082:0.063813575 3083:-0.010238155 3084:-0.017371301 3085:-0.016087184 3086:-0.028689357 3087:0.16629076 3088:0.096137516 3089:-0.060984537 3090:-0.0059067421 3091:0.00074784056 3092:-0.0023822628 3093:-0.049303211 3094:-0.0067161703 3095:0.13675024 3096:-3.1977987e-005 3097:-0.0098879226 3098:-0.013511311 3099:-6.3955973e-005 3100:-0.013059514 3101:-0.03328906 3102:0.022265939 3103:-0.038590889 3105:-0.0095898611 3106:-0.012567373 3107:-0.0037987866 3108:-0.022127429 3109:-5.9497561e-005 3110:-0.0433378 3111:-0.028482996 3112:-0.076755062 3113:-0.00084598415 3114:-0.041990969 3115:-0.0090523921 3116:-0.028689357 3117:-0.03085172 3118:-0.17891252 3119:0.011048269 3120:0.013467235 3121:-0.015392555 3123:-0.013344456 3125:-0.00036454521 3126:-0.10458256 3127:-0.00093631673 3128:-0.035500549 3129:-0.061281003 3130:-0.016133353 3131:-0.0085816793 3132:0.00021109538 3133:-0.002620091 3135:-0.00044431485 3136:-0.017877461 3137:-0.073981591 3140:0.072892301 3141:-0.0017211242 3142:-0.026271479 3143:-0.070548728 3144:-0.0073026996 3145:-0.00071260968 3146:-0.10326619 3147:-5.9497561e-005 3148:-0.062046494 3149:-0.02508606 3150:-0.0063747386 3151:-0.07584694 3152:-0.018327052 3153:-0.087001644 3154:-0.045011748 3155:-0.012226756 3156:0.065588363 3157:-0.00023535587 3158:-0.014119066 3159:-0.031136155 3160:0.037129864 3161:-0.0030559772 3162:-0.010722976 3163:-7.5438671e-005 3164:-0.011061816 3165:0.01883512 3166:-0.040546831 3167:-0.039653543 3168:0.094292186 3169:0.046709005 3170:-0.0026521322 3171:-0.09414541 3172:-0.041699905 3173:-0.00054117705 3174:0.021889737 3175:0.10497341 3176:0.067886226 3177:-0.1117773 3178:-7.5438671e-005 3179:-0.036462788 3180:-0.061927073 3181:0.094292186 3182:0.12635292 3184:0.10471793 3185:-0.0025592372 3186:-0.0056030108 3187:-0.17063944 3188:-0.075695843 3189:-0.061657429 3190:-0.038373217 3191:-0.00066424551 3192:0.031663273 3193:-0.0068089999 3194:-0.074335486 3195:-0.22300646 3196:-0.013226914 3197:-0.014283104 3199:-0.032711741 3200:-0.020977069 3201:-0.021771541 3202:-0.020633539 3203:-0.040067647 3204:-0.024776287 3205:0.048903584 3206:0.064890645 3207:0.0083326949 3209:-0.061516501 3210:0.061917704 3211:-0.01543729 3212:-0.086272158 3213:-0.0030559772 3215:-0.023750497 3216:0.13022819 3217:0.42790166 3218:0.27234638 3219:0.027292747 3220:0.0032553093 3221:0.13050748 3222:-0.034352873 3223:-0.011061816 3224:0.00020722336 3226:-0.022478256 3227:-0.042914916 3228:-0.019577127 3229:-0.020042678 3230:0.014535672 3231:-0.040087275 3232:0.10743466 3233:-0.00084455655 3234:-0.03311339 3235:-0.030323712 3236:-0.048955698 3237:-0.00040147299 3238:-0.034885637 3239:-0.0035778887 3240:0.078095235 3241:-0.028945416 3242:-0.013787017 3243:0.087936655 3244:0.39864764 3245:0.88635874 3246:0.1431337 3247:-0.020968171 3248:0.017867185 3249:0.019908253 3250:-0.013687465 3252:-0.061469935 3253:-0.11442771 3254:-0.0096589411 3256:-0.0051122885 3257:-0.0035457506 3258:-0.0063747386 3259:-0.016294593 3260:-3.1977987e-005 3261:-0.079718478 3262:-0.02917316 3263:-0.11992578 3265:-0.019908717 3266:-0.040808022 3267:-0.026910253 3268:-0.075740322 3269:-0.018837424 3270:-0.0037536013 3271:-0.020926649 3272:-0.042505585 3273:-0.098180473 3274:-0.052877758 3275:0.056141809 3276:0.062513396 3277:-0.024406072 3278:0.030981958 3279:0.081878223 3280:0.061426859 3281:0.13135149 3282:0.041873164 3283:-0.052924719 3284:-0.00026373478 3285:-0.00079120469 3286:-0.057802718 3287:-5.9497561e-005 3288:-0.040669035 3289:0.020791305 3290:-0.011132938 3291:-0.12541211 3293:-0.036979821 3294:-0.21418118 3295:0.11368795 3296:-0.012863628 3297:-0.0051266868 3299:-0.10829145 3300:-0.22438993 3301:-0.01213443 3302:-0.019209782 3303:0.01779416 3304:0.063710488 3305:-6.3955973e-005 3306:-0.028945416 3307:-0.00031954635 3308:0.022720389 3309:-0.030701473 3310:0.018639423 3311:0.029316915 3312:0.030939206 3313:-0.0092855478 3314:0.046289623 3315:-0.020404011 3316:0.1210883 3317:-0.094603762 3318:-0.098871484 3319:-0.051186908 3320:-0.020033823 3321:-0.030164337 3323:0.027292747 3324:-0.030323712 3325:-0.0051807961 3326:0.060611557 3327:-0.019353203 3328:-0.0053416705 3329:-0.043609761 3330:-0.067022085 3331:-0.00032918158 3332:-3.1977987e-005 3333:-0.0053416705 3335:-0.0015383124 3336:-0.0048294705 3337:0.075413652 3338:0.11756016 3339:0.061805166 3340:-0.017058402 3341:-0.01213443 3343:0.059530932 3344:-0.012186349 3345:0.010258279 3346:0.05538388 3347:-0.00032918158 3348:-0.051725049 3349:0.044808216 3350:-0.030147463 3351:-0.033291586 3352:-0.045439266 3354:0.099238597 3355:-0.000432662 3356:-0.075895347 3357:-0.068207063 3358:-0.017321637 3359:-0.0014317218 3360:-0.0049985056 3362:-0.028431086 3363:-0.0051266868 3364:-0.0025592372 3365:-0.0041049886 3367:0.067300856 3368:-0.00024516482 3369:-0.00023187725 3370:-0.028657028 3371:-0.00062586035 3372:0.11336052 3373:-0.08735384 3374:-0.0042951652 3375:-0.011061816 3376:-0.0032364305 3377:-0.0068089999 3378:-0.00023655666 3379:-0.0096179619 3380:-0.01966829 3381:-0.1439686 3382:-0.10902061 3383:-0.076648034 3384:0.052212343 3385:0.045028843 3386:-0.0050192475 3387:-0.00066090591 3388:0.062610708 3389:-0.0098879226 3390:0.094292186 3391:0.050421767 3392:-0.019577127 3393:-0.0064045717 3394:-0.020404011 3396:-0.00044431485 3397:0.067692861 3398:-0.0074231713 3399:-0.051348012 3400:-0.023149041 3401:-0.010847438 3402:0.008207039 3403:-3.1977987e-005 3404:-0.055907175 3405:-0.0073196171 3406:0.0064237188 3407:-0.025066871 3408:-0.07843893 3409:0.076930851 3410:-0.00062131189 3411:-7.5438671e-005 3412:-0.058876552 3413:-0.036462788 3414:0.05809202 3415:0.051776849 3416:0.052212343 3417:-0.043026332 3419:-0.00045260109 3420:-0.046751019 3421:-0.049686547 3422:-0.076859124 3423:-0.057359174 3425:-0.012754321 3426:-0.045725729 3427:-0.0084272837 3428:-0.010294558 3429:-0.0018434298 3430:-0.048108067 3431:0.011648687 3432:-0.00062295841 3433:-0.030871611 3434:-0.00032918158 3435:-0.042374689 3436:-0.040369645 3437:0.074556664 3438:-0.0011479675 3439:-0.016651915 3440:0.00086826255 3441:0.10198797 3442:0.062560119 3443:-0.016809031 3444:-0.076906666 3445:-0.011061816 3446:-0.00030413122 3447:-0.068207063 3448:0.0044057141 3449:-0.00026373478 3450:0.018339643 3451:-0.016852332 3452:-0.026321508 3453:0.09150283 3454:0.083309881 3455:0.073981486 3456:-0.021736201 3457:-0.0098879226 3458:-0.070838109 3459:-0.075805523 3461:0.11368795 3462:-0.019577127 3463:-0.024492845 3464:0.074108638 3465:-0.046923421 3466:-0.015086281 3467:-0.051725049 3468:-0.076305561 3470:-0.017877461 3471:-3.1977987e-005 3472:-0.029116277 3473:-0.016651915 3474:-0.015502032 3475:-0.00057313149 3476:-0.063651919 3477:-0.045050308 3478:-0.010762822 3479:-0.0069934786 3481:0.055776246 3482:0.055256333 3483:-0.00084598415 3484:0.069975592 3485:-0.00065847021 3486:-0.021771541 3487:-0.0040969583 3488:-0.077064 3489:-0.0068089999 3490:0.0003833292 3491:-0.057744812 3492:-3.1977987e-005 3493:-0.017028335 3494:-0.21136621 3495:-0.018546302 3496:-0.095639899 3497:-0.025066871 3498:-0.003154227 3499:-0.031972926 3500:-0.030198095 3501:-0.044972282 3502:-0.0045251162 3503:-0.00084455655 3504:-0.00026373478 3505:-0.0067161703 3506:-0.0067161703 3507:0.035210844 3508:-0.00065847021 3509:-0.029116277 3510:-0.0026200712 3511:-0.019733129 3512:-0.0037987866 3513:-0.026800955 3514:-0.0084272837 3515:-0.0084272837 3516:-0.0084272837 3517:-0.063898265 3518:-0.033291586 3519:-0.00023535587 3521:-0.0068089999 3522:0.031663273 3523:-0.023263028 3524:-0.037674848 3525:0.082366936 3526:-0.073466159 3527:-0.035247225 3528:-0.00041331077 3529:-0.010492884 3530:-0.00023535587 3531:0.10615894 3532:0.070848294 3533:-0.00032918158 3534:-0.0014317218 3535:-0.0040969583 3536:-0.040167827 3537:-0.0091752773 3538:-0.018181587 3539:-0.20923869 3540:0.05272267 3541:-0.020202067 3542:-0.066281497 3543:-0.00044431485 3544:-0.01213443 3545:0.033721913 3546:-0.086371757 3547:-0.054560229 3548:-0.04853772 3550:-7.5438671e-005 3551:-0.00079801277 3552:-0.077160634 3553:-0.048817355 3554:-0.00044431485 3555:-0.0023204517 3556:-0.010480595 3557:-0.0003625105 3558:-0.072944649 3559:-0.028945416 3560:-7.5438671e-005 3561:-0.01350629 3562:-0.036462788 3564:-0.030198095 3565:-0.00023535587 3566:-7.5438671e-005 3567:-0.08322113 3568:-0.2910156 3569:-0.0054174517 3570:-0.01350629 3571:-0.064272225 3572:-0.0033606193 3573:-0.020033823 3574:-0.015742352 3575:-0.00015087734 3576:-0.054931838 3577:-0.049387429 3578:0.077833474 3579:0.016586838 3580:-0.062309168 3581:-0.023263028 3582:-0.015742352 3583:-0.097524822 3584:-0.0013790855 3586:-0.032711741 3587:-0.027195834 3588:-0.043381147 3589:-0.01994456 3590:0.11022778 3591:-0.020404011 3592:-0.070472814 3593:-0.022992464 3594:-0.065226123 3596:-0.089752786 3597:-0.020930201 3598:-0.013325808 3599:-0.066252686 3600:0.02532733 3601:-0.076746814 3602:0.088363901 3603:0.18524511 3604:0.075515978 3605:0.031691078 3606:-0.0013218118 3607:-0.0054174517 3608:-0.0084272837 3609:-0.000817594 3610:-0.0047001224 3611:0.048380382 3612:0.073169775 3613:0.063061245 3614:-0.03801053 3615:-0.0092995297 3616:-0.015824771 3617:0.0052077547 3618:-0.025554109 3619:-0.051108219 3620:-0.018607831 3621:-0.0045251162 3622:-0.051003926 3623:-0.0043857759 3624:-0.13908473 3625:-0.0025592372 3626:0.086453639 3627:0.055826887 3628:0.036184419 3629:0.075119957 3630:-3.1977987e-005 3631:-0.033303831 3632:-0.030145861 3633:-0.00032918158 3634:-0.00032918158 3635:-0.031004064 3636:-7.5438671e-005 3638:-0.0052678417 3639:-0.013579941 3640:-0.055286072 3641:0.097941548 3642:-0.00054041087 3643:-0.025411444 3644:-0.069264494 3645:-0.0018434298 3647:-0.00077279937 3648:0.089590557 3649:0.033083525 3650:0.01518443 3652:-0.011493024 3653:-0.00018052888 3654:-0.013687465 3655:0.0059435531 3656:-0.07235644 3657:0.081838131 3658:-0.02508606 3659:0.05767107 3660:-0.11782895 3661:0.082366936 3662:-0.00064072653 3663:0.097786948 3664:-0.03619929 3665:-0.026864681 3666:-0.03801053 3667:-0.037267197 3668:-0.019985089 3669:0.0030109196 3670:-0.0094237253 3671:-0.045040339 3672:0.050421767 3673:0.159859 3674:-0.038159028 3676:0.0065346416 3677:0.0038127038 3679:-0.022992464 3680:-0.043491494 3681:-0.077753745 3682:-0.061411124 3683:-0.021077532 3684:-0.030871611 3685:-7.5438671e-005 3686:-0.014545735 3687:-0.00036454521 3688:-0.016737044 3689:-3.1977987e-005 3690:0.021889737 3691:-0.010238155 3692:0.0010941693 3693:-0.000817594 3694:0.010666767 3695:-0.036979821 3696:-0.061303124 3697:-0.11285662 3698:-0.14512618 3699:-0.00065847021 3700:-0.040451735 3701:-0.015473742 3702:0.019559687 3703:0.0081912363 3704:0.077678181 3705:0.00023798435 3706:-0.016465278 3707:-0.049955744 3708:-0.031718358 3709:-0.00066090591 3710:0.011048269 3711:-0.012114449 3712:-0.01966829 3713:0.030320136 3714:-0.030359577 3715:-0.056539748 3716:-0.032711741 3717:-0.032711741 3719:-0.045439266 3720:-0.025016146 3721:-0.0012972249 3722:0.086874001 3723:-0.17442821 3724:-0.00036708088 3725:-0.040784914 3726:-0.010722976 3727:-0.054704562 3728:-0.040451735 3729:0.10328422 3730:-0.040260062 3731:0.10328422 3732:-0.024116687 3733:-0.023750497 3734:0.061766565 3735:-0.092091292 3736:-0.24186215 3737:-0.034885637 3738:-0.00054581376 3739:-0.031049317 3740:-0.012013198 3741:0.16307376 3742:-0.034885637 3743:-0.00065847021 3744:-0.0098964022 3745:-0.070693478 3746:-0.00045260109 3747:-0.08490216 3749:-0.00042632062 3750:0.016650241 3751:-0.0015929573 3752:-0.00066090591 3753:0.017142029 3755:-0.015502032 3756:-0.012676236 3757:-0.011648505 3758:-0.049935114 3759:0.12141477 3760:-0.029703133 3761:-0.0084272837 3762:-0.020042678 3763:0.067231357 3764:-0.000817594 3765:-0.0060291719 3766:-0.0060291719 3767:-0.0060291719 3768:-0.0060291719 3769:-0.0060291719 3770:-0.016087184 3771:0.013040191 3772:-0.044059455 3774:-0.044142287 3775:-0.035575785 3776:-0.051385995 3777:0.034720518 3778:0.063813575 3779:-0.12516777 3780:-0.0059172087 3781:-0.023539064 3782:-0.031786043 3783:-0.18582925 3784:-0.018915808 3785:-0.009628796 3786:-0.00023535587 3787:-0.0098401569 3788:-0.00065847021 3789:-0.00079120469 3790:-0.00071260968 3791:-0.057798453 3792:-0.24373282 3793:-0.01931764 3794:0.14099973 3795:-0.00031954635 3796:-0.00031954635 3797:-0.024535643 3798:-0.047498442 3799:-0.01213443 3800:-0.011962096 3801:-0.012810416 3803:-0.0054385769 3804:0.034876224 3805:-0.0084272837 3806:-0.011813484 3807:-0.0025592372 3808:0.048534144 3809:0.13299945 3810:-0.0028634437 3811:-0.015538938 3812:0.022862738 3813:-0.064546257 3814:0.16345493 3815:-0.0030559772 3816:-0.020309966 3817:-0.021736201 3818:-0.060438722 3819:0.017072514 3820:-0.029896885 3821:-0.25484446 3822:0.016999843 3823:-0.18854985 3824:0.085636325 3825:-0.038836885 3826:-0.0045251162 3827:-0.00029538531 3828:-0.020503176 3829:-0.020926649 3830:-0.030088874 3831:-0.043792658 3832:-0.0034389666 3833:-0.03251512 3834:-3.1977987e-005 3835:-0.00024516482 3836:-0.12079056 3837:0.069148391 3838:-0.0013504103 3839:-0.007626507 3840:-0.051754888 3841:-0.0067161703 3842:0.058828473 3843:0.066667974 3844:0.031691078 3845:-0.0045562675 3846:0.15346582 3847:-0.0094237253 3848:-0.031786058 3849:0.038915254 3850:-0.030198095 3851:-0.089733869 3852:-0.0025592372 3853:-0.026910253 3855:-0.0032364305 3856:-0.0229556 3857:-0.01926757 3858:-0.020404011 3859:-0.0083685219 3860:-0.0083685219 3861:-0.013511311 3862:-0.062747493 3863:0.073794432 3864:0.12793247 3865:-0.048817355 3866:-0.13604996 3867:0.0084039457 3868:-0.028299088 3869:0.064394511 3870:-0.12678526 3871:0.068622209 3872:0.029316915 3873:-0.030157762 3874:-0.0037987866 3875:-0.0075975731 3876:-0.0075975731 3877:-0.011396355 3878:-0.037604313 3879:-0.037604313 3880:-0.019908717 3881:-0.038810726 3882:-0.097712338 3883:-0.0087629426 3884:-0.0015187517 3885:-0.015502032 3886:-0.022411097 3887:-0.023859518 3888:0.1557969 3889:0.074753977 3890:0.10786361 3891:-0.026910253 3892:-0.017496668 3894:-0.054560229 3895:-0.041292667 3896:0.021553742 3897:-0.092036106 3898:-0.023720546 3899:-0.023720546 3900:-0.070472814 3901:-0.071550004 3902:0.094354443 3903:-0.098799177 3904:-0.033291586 3905:-0.085325532 3906:0.11368795 3907:-0.0037536013 3908:-0.017326927 3909:-0.048431505 3910:-0.12036178 3911:0.035049308 3912:-7.5438671e-005 3913:-0.045787521 3914:-0.00020844922 3915:0.067048401 3916:0.091586672 3917:0.16314179 3918:0.41017422 3919:0.01574238 3920:0.37339753 3921:-0.065267332 3922:0.12771775 3923:-0.017618256 3924:-0.001524991 3925:-0.0029709621 3926:-0.00032918158 3927:0.030804858 3928:0.39892349 3929:-0.0045251162 3930:0.062017698 3931:0.056553494 3932:-0.011686882 3933:-0.015086281 3934:-0.0049985056 3935:-0.0006172721 3936:-0.061745793 3937:-0.094718188 3938:-0.10652892 3939:-0.017877461 3940:-0.00065847021 3941:-0.031666342 3942:0.018339643 3943:0.13778482 3944:-0.01966829 3945:-0.00023535587 3946:-0.15381333 3948:-0.020427002 3949:-0.10641174 3950:0.0096425582 3951:-0.12678526 3952:-0.024571605 3953:-0.094718188 3954:-0.062092353 3955:-5.9497561e-005 3956:0.10719992 3957:-0.056417339 3958:-0.034263793 3959:-0.040679663 3960:-0.067504451 3961:-0.062377252 3962:0.039149445 3963:-0.001479756 3964:0.0020190196 3965:-0.010388098 3966:-0.042317975 3967:-0.037113551 3968:-0.00065847021 3969:0.036694296 3970:0.03681957 3971:-0.063898265 3972:-0.00064072653 3974:-0.080497235 3975:0.0053443047 3976:-0.051531132 3977:-0.035500549 3978:-0.03626769 3979:0.078255281 3980:-0.011098252 3981:0.0025135621 3982:-0.00044431485 3983:0.057522468 3984:-0.015639756 3985:-0.030871611 3986:-0.019496255 3988:-0.027574778 3989:-0.012810416 3990:0.15418258 3991:-0.023028813 3992:-0.049637012 3993:-0.16409813 3994:-0.081087664 3995:-0.047885031 3996:0.078485869 3997:-0.00064072653 3998:-0.058973312 3999:-0.0068089999 4000:0.14156859 4001:-0.000432662 4002:-0.0229556 4003:-0.0067545921 4004:-0.049955744 4006:-0.0025592372 4007:0.1050702 4008:-0.021148069 4009:0.062535636 4010:-0.073981591 4012:-0.013705275 4013:-0.0030559772 4014:-0.028945416 4015:-0.064065285 4017:-0.034263793 4018:-0.12678526 4020:-0.0011479675 4021:-0.064671174 4022:-0.051348012 4023:-0.034885637 4024:-0.16238742 4025:-0.1869275 4027:-9.9013305e-005 4028:-0.23627464 4029:-0.00098777271 4030:-0.00029525883 4031:-0.00054581376 4032:-0.002185052 4033:-0.00026373478 4034:-0.074335486 4036:-0.041212212 4037:0.020499066 4038:-0.016744116 4039:0.078041315 4040:0.074108638 4041:0.067392327 4042:-3.1977987e-005 4043:-0.00074055942 4044:-0.0017958506 4045:0.057399623 4046:0.016582558 4047:-0.035165131 4048:-0.067385435 4049:-0.029444117 4050:-7.5438671e-005 4051:0.090717204 4052:-0.06231875 4053:-0.0058779763 4054:0.12692052 4055:-0.060616076 4056:-0.11035524 4057:-0.036462788 4058:-0.081498854 4059:0.015680432 4060:-0.021181412 4061:0.013135016 4062:-0.023841217 4063:-0.0030559772 4064:0.027574476 4065:-0.026505636 4066:-0.14867097 4067:-0.037841588 4068:-0.060438722 4069:-0.020853704 4070:-0.055710755 4071:-0.000817594 4072:0.064363718 4073:-0.00093631673 4074:-0.064951338 4075:-0.060080152 4076:0.0073374663 4077:-0.0014317218 4078:-0.03251512 4079:0.015268494 4080:-0.012413687 4081:-0.080730759 4082:-0.020404011 4083:0.035133764 4084:-0.023263028 4085:-0.09424679 4086:-0.047700427 4087:-0.00023535587 4088:-0.051348012 4089:0.044088945 4091:-0.035856232 4092:-0.031178191 4094:-0.00036708088 4096:-0.00054581376 4097:0.040006716 4098:0.18504609 4099:-9.5935437e-005 4100:-0.0016396714 4101:0.011693135 4102:-0.0028241947 4104:-0.034885637 4105:-0.052509423 4108:-0.0050032474 4109:0.030320136 4110:-0.027957482 4111:-0.020404011 4112:0.00042742121 4113:0.14425707 4114:-0.026792681 4115:0.14113107 4116:0.13558131 4117:-0.015614604 4118:-0.055999812 4119:-0.0014317218 4120:0.056656368 4121:-0.035496447 4122:-0.00062131189 4123:0.073169775 4124:0.042084672 4125:-0.025154257 4126:-0.025154257 4127:-0.029116277 4128:-0.029164393 4129:-0.00065847021 4130:-0.045019913 4131:-0.045019913 4132:-0.0059491224 4133:-0.044480022 4134:-0.040545356 4135:-0.027927531 4136:-0.092684232 4137:-0.046350438 4138:-0.046496268 4139:-0.0037076576 4140:0.10339615 4142:0.0068673263 4143:-0.018837424 4144:-0.13167228 4145:0.077833474 4146:0.018588327 4148:-0.0043701041 4149:0.087986 4150:0.060480468 4151:-0.01213443 4152:0.034908153 4153:-0.19490898 4154:-0.054560229 4155:-0.16547133 4156:0.058581714 4157:-0.0059370794 4158:0.054271583 4159:-0.059376463 4160:-0.012863628 4161:0.10328422 4163:0.10719992 4164:0.056533366 4165:-0.054215651 4166:-0.00026494404 4167:-0.074663281 4168:0.014523991 4169:-0.032608382 4170:0.030192036 4171:0.010666767 4172:0.028048288 4173:-0.088168137 4174:-0.071276605 4175:-0.077896893 4176:-0.075683177 4177:0.12414014 4178:-0.01213443 4179:0.035049308 4180:-0.00054581376 4181:-0.023569074 4182:-0.21708508 4183:-0.02968194 4184:-0.17785674 4185:-0.039817434 4186:0.069794104 4187:-0.11308197 4188:-0.069441907 4189:-0.00023535587 4190:-0.0061361203 4191:-0.00023535587 4192:0.02274666 4193:0.02274666 4194:-0.029173777 4196:0.0032553093 4197:-0.17970377 4198:-0.040451735 4199:-0.0037536013 4200:0.078485869 4201:-0.5940308 4202:-3.1977987e-005 4204:-0.018840276 4205:-0.017877461 4206:0.073108509 4207:-0.069428027 4208:-0.11549161 4209:-0.021771541 4210:-0.040970013 4211:-0.0040969583 4212:0.057733521 4213:-0.0016483114 4214:-0.017877461 4215:-0.019577127 4216:0.040190671 4217:-0.0015187517 4218:-0.069595426 4219:0.1170585 4220:-0.062819891 4221:0.12832642 4222:-0.0033606193 4223:-0.0075637787 4224:0.04680131 4225:0.048812933 4226:-0.07819204 4227:0.022668432 4228:-0.047885031 4229:-0.022131771 4230:-5.9497561e-005 4231:-0.00041331077 4232:-0.066414692 4233:-0.00023535587 4234:0.062535636 4235:0.11022778 4236:-0.037130326 4237:-0.0087629426 4238:0.11560041 4239:-0.011949944 4240:-0.0018434298 4241:-7.5438671e-005 4242:-0.011962096 4243:-0.068870567 4245:-0.0063342326 4246:-0.027159883 4247:0.067140259 4248:-0.04035639 4249:-0.065267332 4250:-0.020977069 4251:0.24975789 4252:0.022607932 4253:-0.0018434298 4254:-0.034358479 4255:-0.017613726 4256:-0.0229556 4257:0.11368795 4258:0.0044474415 4259:-0.018087514 4260:-0.0060291719 4261:0.040420871 4262:-0.00026373478 4263:-0.0084272837 4264:0.18373911 4265:-0.021924848 4266:-0.013476915 4267:-0.036714174 4269:-0.029116277 4270:-0.00062131189 4271:-0.0055406624 4272:-0.0034748462 4273:-0.026910253 4274:-0.0028615959 4275:0.062513396 4276:-0.00032918158 4277:0.013525621 4278:0.063813575 4279:0.044451725 4280:-0.065089919 4281:0.044451725 4282:0.043873731 4283:-0.0074231713 4284:-0.09424679 4285:-0.0317952 4286:-0.039739922 4287:-0.13533342 4288:-0.052090839 4289:-0.00065847021 4290:-0.05064477 4291:-0.011061816 4292:-0.038442153 4293:-0.078420162 4294:-0.1205034 4295:-0.00064072653 4296:-0.12989995 4297:-0.68064141 4298:0.010455079 4299:-5.9497561e-005 4300:-0.0074231713 4301:-0.0067270882 4302:-0.051452942 4303:-0.035308488 4304:-0.14511257 4305:-0.084593408 4306:-0.027987251 4307:-0.023151772 4308:-0.10881843 4310:-0.082564943 4311:-0.026910253 4312:-0.026505636 4313:-0.12641892 4314:-0.035026398 4315:-0.00064072653 4316:-0.081288122 4317:-0.043587316 4318:-0.0003625105 4319:-0.021097494 4320:-0.046910852 4321:-0.041990969 4322:-0.020042678 4323:0.01015358 4324:-0.046002258 4325:-0.018208612 4326:-0.05128083 4327:-0.00084598415 4328:-0.00084598415 4329:-0.028945416 4330:-0.025075534 4331:-0.0081939166 4332:-0.00052746956 4333:-0.011061816 4334:-0.041221779 4335:0.051132567 4336:-0.12461834 4337:-0.021771541 4338:-0.0089665642 4339:-0.0061961557 4340:-0.014185105 4341:-0.019230083 4342:-0.00064072653 4343:-0.026910253 4344:-0.081359327 4345:-0.047877643 4346:-0.076006852 4347:-0.055674478 4348:0.090151437 4350:-0.00040147299 4351:-0.0063342326 4352:-0.11005078 4353:-0.063537911 4354:-0.041441925 4355:-9.0264439e-005 4356:-0.019577127 4357:-0.0077694692 4358:-0.019914834 4359:0.00036262837 4360:-0.023878271 4362:-0.028490221 4363:-0.16444901 4364:-0.045479976 4365:-0.00074425305 4366:-0.20210801 4367:-0.0084272837 4368:-7.0425536e-005 4369:-0.050318237 4370:-0.26094836 4371:-0.2351182 4372:-0.016690265 4373:-0.14498897 4374:-0.26394606 4375:-0.046723448 4376:-0.035010364 4377:-0.00062131189 4378:-0.015159642 4379:-0.0034389666 4380:0.00031305838 4381:-0.021522874 4382:-0.022020729 4383:-0.008304324 4384:-0.1656642 4386:-0.034218296 4387:-0.049935114 4388:0.033528373 4389:0.055074424 4390:-0.003407317 4391:-0.19256963 4392:-0.048261553 4393:0.1353309 4394:0.1028648 4395:-0.077770695 4396:-0.16033773 4397:-0.070146687 4398:-0.028657028 4399:-0.040451735 4400:-0.015056951 4401:-0.040451735 4402:-0.014545735 4403:-0.029116277 4404:-0.029116277 4405:-0.012157906 4406:-0.00093631673 4407:-0.036297016 4408:-0.060579531 4409:-3.1977987e-005 4410:-7.5438671e-005 4411:-0.00052746956 4412:-0.00026373478 4413:-0.002185052 4414:0.033486702 4415:-0.0034504454 4416:-0.058973312 4417:0.0041853255 4418:-0.060086504 4419:0.0064668208 4420:0.059255272 4421:0.036184419 4422:0.0034907425 4423:-0.028558327 4424:-0.024222938 4425:-0.054560229 4426:-0.10750259 4427:0.036184419 4428:-0.0086964983 4429:0.02964527 4430:-0.00063992717 4431:-0.028099429 4432:-0.062934406 4433:-0.0091784941 4434:0.12787436 4435:-0.0011884528 4436:-0.010238155 4437:-0.15203625 4438:-0.0022007991 4439:-0.044089422 4440:0.016362516 4441:-0.033157907 4442:-0.074448928 4443:0.0012601624 4444:-0.024896836 4445:-0.09424679 4446:-0.0022007991 4447:-0.0058669019 4448:-0.042640682 4449:-0.022478256 4450:-0.013837822 4451:-0.00062131189 4452:-0.040679663 4453:-0.17769311 4454:-0.013511311 4455:-0.0074231713 4456:-0.02309569 4457:-0.073612645 4458:-0.0018434298 4459:-0.029282529 4460:-0.024480602 4461:-0.0056030108 4462:-0.013325808 4463:-0.0018434298 4464:0.052201822 4465:-0.030871611 4466:-0.086724475 4467:-0.11650783 4468:-0.048108067 4469:-0.0025592372 4470:-0.063372567 4471:-0.013511311 4472:-0.021736201 4473:-0.042914916 4474:-0.016087184 4475:-0.00024516482 4476:-0.0014317218 4477:-0.072276294 4478:-0.00075880723 4479:-0.00023535587 4480:0.014780987 4481:-0.068162642 4482:0.019192589 4483:-0.00081622839 4484:-0.098818727 4485:0.091243245 4486:0.041969106 4487:-0.085235998 4488:-0.0022007991 4489:-0.00055366236 4490:-0.001635188 4491:-0.0010741957 4492:-0.01543729 4493:-0.12520753 4494:-0.0060291719 4495:-0.036297016 4496:-0.035932872 4497:-0.040167827 4498:0.052359473 4499:-0.024979725 4500:0.042527705 4501:-0.023786364 4502:-0.0048459847 4503:0.062085211 4505:-0.00084598415 4506:-0.00084598415 4507:-0.0034389666 4508:-0.087239899 4509:-0.052280843 4510:-0.00093631673 4511:-0.003420027 4512:0.055706594 4513:-0.034728311 4514:0.058713201 4515:-0.079991326 4516:-0.033096805 4517:-0.084684081 4518:0.075214304 4519:0.001949292 4520:-0.010691648 4521:-0.0012127664 4522:-0.06572476 4523:-0.0087629426 4524:-0.014148439 4525:0.041292619 4526:-0.057090737 4527:0.028494613 4528:-0.040451735 4529:0.039478943 4530:0.03267527 4531:-0.00074055942 4532:-0.00074055942 4533:-0.0087629426 4534:-0.01350629 4535:-0.042564135 4536:-0.00066090591 4537:-0.011943978 4538:-0.12674513 4539:0.031340122 4540:0.12685059 4541:-0.03706903 4542:-0.1783172 4543:0.093448438 4544:-0.0073026996 4545:-0.03939883 4546:-0.00041689843 4547:-0.019577127 4548:-0.00045260109 4549:-0.040140435 4550:-0.035856232 4551:-0.067002557 4552:-0.099486127 4553:-0.063538603 4554:-0.12041385 4555:-0.060206924 4556:-0.032485951 4557:-0.00051415875 4558:-0.036297016 4559:-0.0056030108 4561:-0.0029709621 4562:-0.0030559772 4563:-0.0015187517 4564:-0.12960154 4565:-0.17603903 4566:-0.023257509 4567:-0.023257509 4568:-0.015502032 4569:-0.00036454521 4570:-0.1431039 4571:-0.037841588 4574:-0.069454201 4575:0.22300732 4576:0.10800581 4577:0.039834391 4578:-0.042498402 4579:-0.050148252 4580:-0.055674478 4581:-0.00042632062 4582:0.09378425 4583:0.20116287 4584:0.04418195 4585:0.065558963 4586:0.034590621 4587:-0.058984965 4588:-0.010729385 4589:-0.0051122885 4590:-0.00023655666 4591:0.093806386 4593:0.029134741 4594:-0.050184023 4595:-0.064763099 4596:-0.0052464418 4598:-0.015502032 4599:0.081717134 4600:0.027688131 4601:-0.0034748462 4602:-0.00032918158 4603:0.020847803 4604:-0.0083961021 4605:0.0074473647 4606:-0.0034748462 4607:-0.0030845786 4608:-0.0087629426 4609:-0.1524798 4610:-0.023750497 4611:0.010093928 4612:-0.055159621 4613:0.0003784936 4614:-0.11754543 4615:-0.032928757 4618:-0.00024516482 4619:-0.001219978 4620:-3.1977987e-005 4621:-0.00041331077 4622:-0.0054385769 4623:0.029021036 4624:-0.00063949026 4625:-0.00054041087 4626:-0.088595979 4627:-0.013226914 4628:0.014426362 4629:-0.015639756 4630:-0.060220946 4631:-0.02309569 4633:-0.00062131189 4634:-0.10021758 4635:-0.01213443 4636:-0.011061816 4637:-0.00082662154 4638:-3.1977987e-005 4639:-0.043716479 4640:-0.0077694692 4641:-0.0077694692 4642:-0.03801053 4643:-0.083981939 4645:-0.0037536013 4646:-3.1977987e-005 4648:0.11986103 4649:0.052446067 4650:-0.028488025 4651:-3.1977987e-005 4652:0.06451679 4653:0.031514667 4654:-0.0003625105 4655:0.062513396 4656:-0.034885943 4657:-0.02636241 4658:-0.0067545921 4659:-0.019847173 4660:0.096831329 4661:-0.068980649 4662:-0.080903471 4663:-0.076018073 4664:-0.040167827 4665:0.03681957 4666:-0.00038002129 4667:-0.017877461 4668:-0.0028615959 4669:-0.00064072653 4671:-0.042914916 4672:-0.052252892 4673:-0.00041331077 4674:-0.055458803 4675:-0.02508606 4676:-0.016087184 4677:-0.07128454 4678:-0.05975426 4679:-0.020977069 4680:-0.0098879226 4681:-0.082034349 4682:-0.042640682 4683:0.00062611676 4684:-0.024032382 4685:0.060387384 4687:-0.055260066 4688:-0.055260066 4689:-0.085281365 4690:0.066663414 4691:-0.0045251162 4692:-0.2356579 4693:-0.071111158 4695:0.055256333 4696:-0.013904526 4697:-0.11157826 4698:-0.069028139 4699:-0.043381147 4700:-0.0040969583 4701:0.093806386 4702:-0.094071813 4703:0.053691611 4704:-0.037054513 4705:-0.075740077 4706:-0.0054687392 4707:-0.0015187517 4708:-0.036297016 4709:-0.000817594 4710:-0.070472814 4711:0.01512457 4712:-0.00071260968 4713:-0.0097352341 4714:-0.050522838 4716:-0.053388372 4717:-0.039970178 4718:-0.0055406624 4719:-0.045265637 4720:-0.011061816 4722:-0.0041049886 4723:-0.00023535587 4724:-0.029116277 4725:-0.080396414 4726:-0.12443855 4727:-0.0050350018 4728:-0.0084272837 4729:-0.080258764 4730:0.076144382 4731:-0.00041331077 4732:-0.0014317218 4733:-0.0084272837 4734:0.075983614 4735:-0.010920425 4736:-0.0028633575 4737:-0.013570457 4738:-0.0028633575 4739:-0.015772274 4740:-0.015940668 4741:0.069588758 4742:-0.0045251162 4743:-0.022737019 4744:-0.017877461 4745:0.011420001 4746:-0.00026373478 4747:-0.0032364305 4748:0.049210306 4750:-0.18558443 4751:-0.020033823 4752:-0.10016911 4753:-0.010492884 4754:-0.025016146 4755:-3.1977987e-005 4756:-0.032178383 4757:-0.036697626 4758:-0.066672139 4759:-0.14811158 4760:0.0052077547 4761:0.22893301 4762:-0.042142093 4763:-0.09904635 4764:-0.056417339 4765:-0.011453747 4766:-0.063537911 4767:-0.097952396 4768:0.14531741 4769:-0.067385435 4770:-0.020404011 4771:0.067728765 4772:-0.0037987866 4773:-0.019985089 4774:-0.020660236 4775:0.02532733 4776:-0.00022631527 4778:-0.15303575 4779:-0.016082928 4780:-0.036136735 4781:-0.011952564 4782:0.00059831131 4783:-7.5438671e-005 4784:-0.0018434298 4785:-0.01350629 4786:-0.00084598415 4787:0.029021036 4788:-0.033291586 4789:0.12562163 4790:0.11873873 4791:0.030320136 4792:0.055706594 4793:-0.059132434 4794:-0.045040339 4795:-0.0024862175 4796:-0.00044431485 4797:0.032026708 4798:-7.5438671e-005 4799:0.1081755 4800:-0.097262971 4801:-0.030323712 4802:0.049391367 4803:0.057808891 4805:0.062437579 4806:0.038989879 4807:-0.010964924 4808:-0.069359012 4809:-0.016774748 4810:-0.035425317 4811:-0.0011978785 4812:-0.013511311 4813:-0.017877461 4814:-0.0060380949 4815:0.032348327 4816:-0.035856232 4817:-0.071712464 4818:-7.5438671e-005 4819:0.114173 4820:-0.027769266 4821:-0.0014317218 4822:-0.027047344 4823:-0.00084598415 4824:-0.043910753 4825:-0.010722976 4826:-0.014119066 4827:-0.00032918158 4828:-3.1977987e-005 4829:0.038412627 4830:-0.0030559772 4831:-0.0091679329 4832:0.14306995 4833:-0.0032551249 4834:-0.0030559772 4835:-0.069428027 4836:-0.036297016 4837:-3.1977987e-005 4839:-5.9497561e-005 4840:-0.023263028 4841:-0.058973312 4842:-0.00040147299 4843:0.081812128 4844:-0.036276992 4845:0.070190057 4847:-0.00081622839 4848:-0.05698764 4849:0.0015054607 4850:0.087304413 4851:0.067703925 4852:0.0016222729 4853:-0.11444356 4854:-0.055469498 4855:-0.01931764 4856:0.071791805 4857:0.0079102591 4858:-0.010762963 4859:-0.018104784 4860:-0.01429767 4861:0.1377309 4863:-0.0025592372 4864:-0.042981241 4865:0.00031887818 4867:-0.026321508 4868:-0.026321508 4869:-0.00038002129 4871:-0.012692917 4872:-0.11191297 4873:0.047877621 4874:-0.010722976 4875:-0.03762107 4876:-0.0053416705 4877:-0.00074055942 4878:-0.020033823 4879:0.019796291 4880:0.036694296 4881:0.00018663451 4882:-0.012365761 4883:-0.026209792 4884:0.20450114 4885:0.10731963 4886:0.092270792 4887:0.068094298 4888:-0.15685996 4889:-0.00032918158 4890:0.12167582 4891:-3.1977987e-005 4892:-0.0017059091 4893:-0.00064072653 4894:-0.0045251162 4895:0.0032553093 4896:-0.045019913 4897:-0.023263028 4898:0.00039150639 4899:-0.022478256 4900:-0.030432845 4901:-0.031004064 4902:-0.00064072653 4903:-0.0012814531 4904:-0.00023535587 4905:-0.033291586 4906:0.030320136 4907:-0.027160572 4908:0.12167582 4909:-0.084489003 4910:-0.077183701 4911:-0.076334037 4912:-0.033291586 4913:0.036506154 4914:-0.020033823 4915:-0.0070925523 4916:-0.085885651 4917:0.0031549858 4919:-0.016612651 4920:-7.0425536e-005 4921:-0.033412408 4922:-0.040140435 4923:-0.018129289 4924:-0.02146242 4925:-0.0054174517 4926:0.091491096 4927:-0.02508606 4928:-0.049387429 4929:-0.027894564 4931:-0.00026373478 4932:-0.0084935669 4934:-0.0022007991 4935:-0.025163898 4936:-0.091135561 4937:-0.0054174517 4938:-0.048923373 4939:-0.034885637 4940:-0.00065847021 4941:-0.020404011 4942:0.077595852 4943:0.040725954 4944:-0.048955698 4945:-0.031067312 4946:-0.035733942 4947:-0.026697319 4948:0.065252677 4949:0.054271583 4950:-0.1780304 4951:-0.075740077 4952:-0.011365172 4955:-0.13885906 4956:0.058017649 4957:0.011239552 4958:-0.0052464418 4959:-0.00066090591 4960:-0.011365172 4961:-0.012810416 4962:-0.012810416 4963:-0.014545735 4964:-0.034263793 4966:-0.03162894 4967:-0.0087629426 4968:-0.095639899 4969:0.023655193 4970:-0.054560229 4971:-0.16850646 4972:0.086606644 4973:-0.00036708088 4974:-0.10142161 4975:-0.043503713 4976:-0.00065847021 4977:0.036184419 4978:-0.011962096 4979:-0.00054581376 4980:0.094292186 4981:-0.029575765 4982:0.030564766 4983:-0.090400308 4984:-0.024455048 4985:-0.00045260109 4986:0.14720817 4987:-0.0090523921 4988:-0.14452219 4989:0.056168217 4990:-0.018840276 4991:-0.037050746 4992:-0.012541896 4993:-0.0034389666 4994:0.033377968 4995:0.2382527 4996:0.13346268 4997:-0.030323712 4998:-0.0065409569 5000:0.04071879 5001:-0.0060291719 5002:0.1028648 5003:-0.00023535587 5004:-0.03626769 5005:-0.087961584 5006:-0.2270287 5008:-0.00040147299 5009:-0.01429767 5011:-0.00083982589 5012:-0.081498854 5013:-0.00020844922 5014:-0.011365172 5015:-0.0058704047 5016:-0.02508606 5017:-0.067666709 5018:-0.0067270882 5019:-0.00041331077 5020:-0.0065409569 5021:-0.00036708088 5022:0.19800667 5023:-0.041212212 5024:-0.10257988 5025:-0.023298606 5026:-0.064417228 5027:0.028048288 5028:-0.00065847021 5029:-0.00032918158 5030:-0.00015087734 5031:-0.00023655666 5032:-0.067565419 5034:-0.19934271 5035:0.09186469 5037:-7.5438671e-005 5038:0.014780987 5039:0.0021655082 5040:0.065252677 5041:0.029316915 5042:0.056235813 5043:0.070204005 5044:-0.00062131189 5045:0.0015054607 5046:-0.024414815 5047:-0.017877461 5048:-0.0067161703 5049:-0.000432662 5051:-0.00062131189 5052:-0.067157924 5053:-0.028431086 5054:-0.0068089999 5055:-0.041212212 5056:-0.012366249 5057:-0.031718358 5058:-0.058524542 5059:0.0030109196 5060:-0.00052746956 5061:-0.0071920161 5062:-0.049538445 5063:-0.040231109 5064:-0.01543729 5065:-0.0063342326 5066:-7.5438671e-005 5067:-0.00052746956 5068:-0.0047912067 5070:-7.5438671e-005 5071:-0.0018434298 5072:0.02466307 5073:-0.042498402 5074:-0.00026373478 5075:0.091133192 5076:-0.0068089999 5077:0.014379505 5078:-0.0010549391 5079:-0.025016146 5080:-0.017877461 5081:-0.0063342326 5082:-0.00040147299 5084:-0.0059067421 5086:-0.02501999 5088:0.067392327 5089:-0.01543729 5090:-0.0087629426 5091:-0.068981335 5093:-0.00084598415 5094:-0.086272158 5095:-0.00062131189 5096:-0.00062131189 5097:-0.00057313149 5098:-0.11405334 5099:0.11098684 5100:0.067392327 5101:-0.00023535587 5102:-0.0022007991 5103:-0.0067545921 5104:-0.0059067421 5105:-0.029116277 5106:-0.051658507 5107:-0.031537093 5108:-0.023720546 5109:-0.015392555 5110:-0.033210043 5111:-0.057029493 5112:-0.025016146 5113:-0.055166274 5114:-0.082564943 5115:-0.011962096 5116:-0.0018434298 5117:-0.0008574503 5118:-0.017877461 5119:-0.0094237253 5120:-0.040451735 5121:-0.062780812 5122:0.13043381 5123:-0.043405253 5124:-0.0090523921 5125:0.024498386 5126:0.26291087 5127:-0.017877461 5128:-0.0084272837 5129:-0.088905394 5130:-0.049671307 5131:-0.028657028 5132:-0.028657028 5133:-0.14951986 5134:-0.012664076 5135:-0.00045260109 5136:0.030981958 5138:0.089938879 5139:-0.060438722 5140:0.079066083 5141:-0.06217888 5142:0.021248369 5143:0.011048269 5144:0.076227695 5145:-0.056417339 5146:-0.0063342326 5147:-0.0022007991 5148:-0.011061816 5149:-0.00023535587 5150:0.076335624 5151:0.075983614 5152:0.068728708 5153:0.077230208 5154:-0.00026373478 5155:-0.056417339 5156:-0.027894564 5157:-0.067666709 5158:-0.01543729 5159:-0.016963212 5160:-0.025016146 5161:-0.1038403 5163:-0.025281856 5164:-0.039458774 5165:-0.022729369 5166:-0.058062296 5167:-0.0071778768 5169:-0.058775116 5170:0.0081912363 5172:-0.07045272 5173:-0.02508606 5174:-0.062309168 5175:-0.045459755 5176:-0.0030559772 5177:-0.0030559772 5178:-0.042169005 5179:-0.089787319 5181:-0.076914735 5182:-0.014119066 5183:-0.00062131189 5184:-3.1977987e-005 5185:-0.046273284 5186:-0.026404751 5187:-0.054560229 5188:-0.00038002129 5189:-0.0033606193 5190:0.033479154 5191:-0.049570091 5192:-0.0041259318 5193:-0.0032570141 5194:-0.0025568369 5195:-0.02508606 5196:-0.0030559772 5197:-0.0029776124 5198:-0.00057313149 5199:-0.060579531 5200:-0.021736201 5201:-0.016087184 5202:-0.00045260109 5203:-0.016724728 5204:0.17649589 5205:-0.023136642 5206:-0.0061920583 5207:-0.023720546 5208:-0.027894564 5209:-0.011061816 5210:-0.061385572 5211:0.17771824 5212:-0.023116538 5213:0.010455079 5214:-0.011365172 5215:-0.015502032 5216:-0.011061816 5217:0.0089544496 5218:-0.066404596 5219:-0.18512666 5220:-3.1977987e-005 5221:-2.8683535e-005 5222:-0.00032918158 5223:-0.036462788 5224:-0.040645409 5225:-0.091073744 5226:-0.0040969583 5227:0.064394511 5228:-0.019985089 5229:-0.041212212 5230:-0.049935114 5231:-0.094325706 5232:-0.041212212 5233:-0.02146242 5234:-0.12893097 5235:-0.022737019 5236:-0.02125106 5237:-0.034263793 5238:-0.14811158 5239:-0.045265637 5240:-0.035614837 5241:-0.013511311 5242:0.010561937 5243:-0.020404011 5244:-0.027560238 5245:-0.027894564 5246:-0.043381147 5247:0.11901491 5248:0.11898024 5249:0.039586663 5250:-0.020033823 5251:0.013525621 5252:-0.0060291719 5253:-0.0077969674 5254:-5.9497561e-005 5255:-0.042239469 5256:-0.16084205 5257:0.049751211 5258:-0.0015328663 5259:0.015503067 5260:0.039149445 5261:-0.03626769 5262:0.075983614 5263:0.040420871 5264:0.05538388 5265:0.053052787 5266:0.016322708 5267:-0.063257881 5268:-0.0075637787 5269:0.077647626 5270:0.041286174 5271:-0.00086532399 5272:-0.071276605 5273:-0.030639749 5274:0.064846821 5275:-0.02508606 5276:-0.00084598415 5279:0.03681957 5280:0.059530932 5281:-0.0068089999 5282:-0.040167827 5283:-0.012577348 5284:0.062364839 5285:0.073169775 5286:-0.043290805 5287:-0.0034748462 5288:-0.00030413122 5289:-0.049479291 5290:0.0064237188 5292:-0.0096589411 5293:0.070426844 5294:-0.012554954 5295:-0.0003625105 5296:-0.016133353 5297:-0.056512274 5298:0.017107505 5299:-0.013579941 5300:-0.042302947 5301:-0.059799477 5302:-0.11134154 5303:-0.12667659 5304:-0.00041331077 5305:-0.00074055942 5306:-0.0074231713 5307:0.014780987 5308:0.10198797 5309:-0.022737019 5310:-0.083085455 5311:0.0072627785 5312:-0.0029709621 5313:0.018322747 5314:-0.085812464 5315:-0.06182782 5316:-0.022737019 5317:-0.022737019 5318:-0.011300272 5319:-0.01350629 5320:-0.031484704 5321:0.055256333 5322:0.062610708 5323:-0.027778756 5324:-0.10699321 5325:-0.026115809 5326:-0.017613726 5327:0.067940362 5328:-0.0014317218 5329:0.071462557 5330:-0.092869408 5332:-0.026233679 5333:-0.017877461 5334:0.062513396 5335:-3.1977987e-005 5336:0.13539064 5337:-0.014750789 5338:-0.04563706 5340:-0.00031954635 5341:-0.057029493 5342:-0.01167608 5343:-0.00038002129 5344:-0.065267332 5345:-0.031786043 5346:0.014367597 5347:-0.04294638 5348:-0.00041331077 5349:0.055555705 5350:-0.011061816 5351:-0.11189181 5353:-0.015538938 5354:-0.020339442 5355:-0.0054174517 5356:-0.0054385769 5357:-0.052469488 5358:-0.0090523921 5359:0.047837321 5360:0.0089400122 5361:-0.025016146 5362:-0.028945416 5363:0.052212343 5364:0.039081018 5365:0.036350548 5366:-0.0068089999 5367:-0.0048459847 5368:-0.025885373 5369:-0.061756507 5370:-0.022343857 5371:-0.0060291719 5372:-0.0096530272 5373:-0.054724496 5374:-0.0059067421 5375:-0.093384661 5376:-0.10912046 5377:-0.048305914 5379:0.13133948 5380:0.089030668 5381:-0.045265637 5382:-0.087934427 5383:-0.13053466 5384:-0.017880091 5385:0.062437579 5386:-0.040260062 5387:-0.02426886 5388:0.161901 5389:-0.066117741 5390:-0.018764593 5391:-0.047395818 5392:-0.0045251162 5393:-0.0022007991 5394:-0.0065300362 5395:-0.044472016 5396:-0.0045251162 5397:-0.051411953 5398:-3.1977987e-005 5399:0.037454825 5400:-0.017613726 5401:-0.026910253 5402:-0.0063342326 5403:-0.011061816 5404:-0.0098879226 5405:-0.011061816 5406:-0.00032918158 5407:-0.0065234723 5408:-0.10940067 5409:-0.0068089999 5410:-0.00074055942 5411:-0.066504873 5413:0.083819143 5414:0.013168634 5415:-0.0041264612 5416:-0.14493839 5417:0.12692052 5418:-0.01218051 5419:-0.0057465122 5420:-0.00047071173 5421:-0.018929932 5422:-0.019985089 5423:-0.00062131189 5424:-0.00037867631 5425:-0.026347145 5426:0.066140391 5427:-0.010238155 5428:0.05538388 5429:-0.024180366 5430:-6.3955973e-005 5431:-0.00060826243 5432:0.070204005 5433:-0.016133353 5434:-0.0056369272 5435:-0.00084598415 5436:0.052869081 5437:-0.02146242 5438:-0.019577127 5439:-0.019442484 5440:-0.029953571 5441:-0.0022007991 5442:-0.20085584 5443:-0.0052931737 5444:-0.26131964 5445:-0.034885637 5446:-0.00083675387 5447:0.05524537 5448:-0.048817355 5449:-0.0067270882 5451:0.068586774 5452:-0.027855748 5453:-0.016087184 5455:-0.0056030108 5456:-0.00031954635 5457:-3.1977987e-005 5458:-0.0060291719 5459:-0.024331223 5460:-0.069102101 5461:-0.080924615 5462:-0.00026122609 5463:0.036694296 5464:-0.00026373478 5465:-9.9534875e-005 5466:-9.9534875e-005 5467:-0.00040147299 5468:-3.1977987e-005 5469:-2.8683535e-005 5470:-0.052841179 5471:-0.035227451 5472:-0.0011884528 5473:-0.16891123 5474:-0.012437171 5475:-0.020926649 5476:-0.087431848 5477:-0.0229556 5478:-0.000432662 5479:-0.17658558 5480:-0.031290628 5481:-0.002759571 5482:-0.0061718109 5483:-0.089787319 5484:-0.034940615 5485:0.01592622 5486:-0.059118524 5487:-0.02389848 5488:-7.5438671e-005 5489:0.080040038 5490:0.24545616 5491:-0.011538015 5492:-0.01966829 5493:0.071199894 5494:-0.001146263 5495:0.029593017 5496:0.036694296 5497:0.033622392 5498:-0.00064072653 5499:-0.0071778768 5500:0.068586774 5501:-0.011365172 5502:-0.0056030108 5503:-0.035425317 5504:-0.014119066 5505:-0.0060291719 5506:-0.016087184 5507:-0.047146812 5508:0.077353872 5509:-0.07900618 5510:-0.0016919683 5511:-0.0040969583 5512:-0.18158177 5513:0.22152676 5514:-0.084061004 5515:-0.09424679 5516:-0.1459666 5517:-0.015639756 5518:-0.036330361 5519:-0.0019739999 5520:0.022062469 5521:-0.000817594 5522:-0.013787017 5523:0.022436401 5524:-0.23589325 5525:-0.069428027 5526:-0.04800453 5527:0.036477666 5528:-0.021403084 5529:0.070426844 5530:-0.0016483114 5531:-0.0062409136 5532:0.10712118 5533:-0.084173448 5534:-0.00064072653 5535:-0.016133353 5536:-0.013579941 5537:-0.00042632062 5538:-0.00037071717 5539:0.027295463 5540:0.057808891 5541:-0.00071260968 5542:-0.14380679 5543:0.13346268 5544:0.059062731 5545:-0.026910253 5546:-0.022992464 5547:-0.0094237253 5548:-0.068207063 5549:0.0078556389 5550:-0.0030894063 5551:-3.1977987e-005 5552:0.035522077 5553:-3.1977987e-005 5554:0.064562351 5555:-0.0098879226 5556:-0.10034135 5557:-0.016513575 5558:-0.034885637 5560:-0.020404011 5561:-0.020404011 5562:-0.065267332 5563:0.090752199 5565:-0.016438473 5566:0.060312126 5567:-0.050428528 5568:0.062437579 5569:-0.0054385769 5570:-0.00065836316 5571:-0.0011268733 5572:-0.071637541 5573:-0.00036454521 5574:0.030939206 5575:-0.0062785968 5576:-0.0034389666 5577:-0.0092336936 5578:-0.083101876 5579:0.05538388 5580:-0.0032364305 5581:-0.011061816 5582:-0.01553858 5583:0.01015358 5584:-0.0014317218 5585:-0.08402776 5587:0.087559432 5588:-0.0008574503 5589:-3.1977987e-005 5590:-0.016133353 5591:0.0017467844 5592:-0.10881292 5593:-0.040451735 5594:-0.033924624 5595:-0.069771275 5596:-0.022618648 5597:-0.0098879226 5598:-0.053585362 5599:-0.0041960278 5600:0.032065947 5601:-0.0075637787 5602:-0.03801053 5603:-0.002185052 5604:-0.0037536013 5605:-0.072806589 5606:-0.055046462 5607:-0.0018434298 5608:-0.0057465122 5610:-0.022737019 5611:0.029021036 5612:-0.016087184 5613:-0.016087184 5614:-0.014851588 5615:-0.13487075 5616:-0.057527259 5617:0.058632575 5618:-0.013794224 5619:-0.085961089 5620:-0.034263793 5621:-0.026580442 5622:-0.047981903 5624:-0.00029538531 5625:-0.020853704 5626:0.12922992 5627:-0.16188543 5628:0.028435048 5629:0.042235132 5630:-0.10664723 5631:-0.024626683 5632:-7.5438671e-005 5633:-0.013511311 5634:-0.00012938904 5635:-0.041212212 5636:-0.00068935222 5637:-0.063639015 5638:-0.020926649 5639:-0.0012097409 5640:-0.048935488 5641:-0.03047022 5642:-5.9497561e-005 5643:-0.01213443 5644:-0.039935727 5646:-0.028370779 5647:-0.049387429 5648:-0.042914916 5649:0.087274127 5650:-0.062309168 5651:-0.027160572 5652:-0.0028633575 5653:-0.0037987866 5654:0.057269443 5655:-0.03853514 5656:-0.13813896 5657:0.053399775 5658:0.053399775 5659:-0.046195336 5660:-0.035500146 5661:-0.070745319 5662:-0.050659824 5663:0.077833474 5664:0.011264916 5665:-0.061520007 5666:-0.032711741 5667:-0.00032918158 5668:-3.1977987e-005 5670:0.036552269 5671:-0.0027410537 5674:-0.028689357 5675:0.10057782 5676:0.084260859 5677:-0.019908717 5678:-0.041212212 5679:-0.069930367 5681:-0.060579531 5682:-0.018837424 5683:-0.00066090591 5684:-0.13962977 5685:0.10357151 5686:-0.11689264 5687:-0.020309966 5688:-0.025016146 5689:0.059530932 5690:-0.10458445 5691:0.014780987 5692:0.0277222 5693:-0.025066871 5694:0.067048401 5695:0.085915565 5696:-0.015742352 5697:-0.036297016 5698:0.034968238 5699:-0.022995481 5700:-0.016165704 5701:-0.021148069 5702:0.085472085 5703:0.060144585 5704:-0.1300835 5705:-0.00084598415 5706:-0.014086484 5707:-0.0080939839 5708:0.13346268 5710:-0.012810416 5711:-0.00029538531 5712:-7.5438671e-005 5713:-0.0058779763 5714:-0.094718188 5715:-0.051292151 5716:-0.00020844922 5718:0.016582558 5719:-0.091551311 5720:-0.021620907 5721:-0.12154876 5722:-0.0048294705 5723:-0.080729008 5724:-0.05248801 5725:-0.0016396714 5727:-0.00084598415 5728:0.085223004 5729:-0.0029709621 5730:-0.062112823 5731:-7.0425536e-005 5732:-0.0074231713 5733:-0.036369428 5734:0.055431277 5735:0.030009784 5736:-0.053011272 5737:-0.00020844922 5739:-0.025016146 5740:-0.0012841831 5741:-0.033303831 5742:-0.21304785 5743:-0.066607662 5744:-0.032587294 5745:-0.33498338 5746:-0.078173742 5747:-0.00062131189 5748:-0.0041049886 5749:-0.01931764 5750:-0.22122404 5751:-0.048817355 5752:-0.016651915 5753:-0.016651915 5754:0.0064840149 5755:-0.21193275 5756:0.057893358 5757:-0.02508606 5758:-0.0229556 5760:-0.021754308 5761:-0.0014317218 5762:0.069148391 5763:-0.00026373478 5764:-0.1455078 5765:-0.033326313 5766:-0.033445485 5767:-0.034475647 5768:-0.072922677 5769:-0.011283046 5770:-0.049305588 5771:0.0064840149 5772:-0.00065847021 5773:-0.045885861 5775:-0.054813966 5776:0.043170638 5777:0.059692089 5778:-0.10787819 5779:-0.010639235 5780:0.13761304 5781:0.16621853 5782:-0.034885637 5783:0.00038882485 5784:-0.00070234231 5785:-0.0022007991 5786:-0.054323066 5787:-0.0229556 5788:-0.041179992 5789:-0.032160331 5790:-0.00023535587 5791:-0.047676142 5792:-0.00084598415 5793:-0.040451735 5794:-0.0067545921 5795:-0.056802031 5796:-0.0089845844 5797:-0.12919472 5798:-0.0018281587 5799:-0.015392555 5800:-0.09411329 5801:-0.021584908 5802:-0.00064072653 5804:-7.5438671e-005 5805:-0.0068089999 5806:0.034118623 5807:-0.0028615959 5808:-0.13830735 5809:-0.033291586 5810:-0.0062191905 5811:-0.0087629426 5812:-3.1977987e-005 5813:-0.016730301 5814:-0.17223012 5815:-0.018837424 5816:0.05538388 5817:-0.0063342326 5819:0.061388172 5820:-0.16252491 5821:-5.9497561e-005 5822:-0.01926757 5823:-0.012211726 5824:-0.0014270965 5825:-0.016372848 5826:-0.077183701 5827:0.041382946 5828:0.062946439 5829:-0.0003984592 5830:0.052495334 5831:-0.028574262 5832:-0.0098879226 5833:0.097031988 5834:0.08677201 5835:-0.060438722 5836:0.072240539 5837:-0.039192248 5838:-0.0037987866 5839:-0.045559607 5840:-0.017417632 5841:-0.040545356 5842:-0.10024958 5843:-0.079991326 5844:0.067703925 5845:-0.057961065 5846:-0.013511311 5847:-0.066414692 5848:-0.078169562 5849:-0.0049228771 5850:0.027107509 5851:-0.0011479675 5852:-0.017613726 5853:-0.013875139 5854:-0.013081914 5855:-0.12073991 5856:-0.0059067421 5857:-0.021141782 5858:-0.06121204 5859:-0.01350629 5860:-0.0542299 5861:-0.09296634 5862:-0.00031954635 5863:-0.02636241 5864:-0.020404011 5865:-8.9278758e-005 5866:-0.0063342326 5867:-0.020977069 5868:-0.036462788 5869:-0.00041331077 5870:0.029024558 5871:-0.01543729 5872:-0.029624404 5873:-0.07281252 5874:0.22884962 5875:0.12957206 5876:-0.063372567 5877:-0.030684326 5878:-0.023750497 5879:-0.26720953 5880:-0.014841875 5881:0.0036727544 5882:-0.11086062 5883:-0.047479216 5884:-0.064132445 5885:0.097786948 5886:-0.071698062 5887:-9.0264439e-005 5888:0.02030299 5889:-0.23656827 5890:-0.073363855 5891:-0.014270291 5892:0.056686878 5893:-0.022737019 5894:0.1482649 5895:-0.0037987866 5896:-0.00062131189 5897:-0.00062131189 5898:0.019559687 5899:-0.01982544 5900:0.10215867 5901:-0.023876572 5902:-0.023876572 5903:-0.069454201 5904:-0.11297397 5905:-0.022127429 5906:-0.0014317218 5907:-0.030359577 5910:-0.036714174 5911:-0.077882305 5912:-0.026910253 5913:-0.030614544 5914:-0.06823162 5916:-0.011962096 5917:-0.013555251 5918:-0.030469399 5919:-0.0094666528 5920:-0.00066090591 5921:0.07898812 5922:-3.1977987e-005 5923:-0.0030559772 5924:-0.020977069 5925:-0.00036454521 5926:-0.024681531 5927:-0.032951429 5928:-0.15603113 5929:-0.0015187517 5930:-0.0090523921 5931:-0.027160572 5932:-0.013511311 5933:0.018588327 5934:-0.011365172 5935:-0.042914916 5936:-0.0016919683 5937:-0.1173397 5938:-0.00040147299 5939:-3.1977987e-005 5940:-0.018844038 5941:-0.00032918158 5942:-0.19705664 5943:0.010779132 5944:0.1492746 5945:0.24216999 5946:0.03413137 5947:0.062051523 5948:-0.022992464 5949:-0.025094982 5950:-0.00062131189 5951:-0.063651919 5953:-0.0006172721 5955:-0.12511858 5956:-0.00071260968 5957:-0.024904115 5958:-0.049730893 5959:-0.00066090591 5960:0.14925633 5961:0.0033458113 5962:0.047345117 5963:-0.054560229 5964:-0.081147894 5965:-0.054444451 5966:-0.068372719 5967:-0.10730573 5968:0.022166008 5969:-0.076276459 5970:-0.10872955 5971:0.0064840149 5972:-0.0025592372 